tree
version=v4
num_class=1
num_tree_per_iteration=1
label_index=0
max_feature_idx=323
objective=binary sigmoid:1
feature_names=AM PM hLectiu latePM total_visites CapDeSetmana Laborable total_clics Altre_M_dul_de_curs_vist Altre_S_ha_mostrat_el_debat Archive_21_22_M_dul_de_curs_vist Archive_21_22_S_ha_descarregat_l_arxiu_Zip_o_la_carpeta Archive_22_23_M_dul_de_curs_vist Archive_22_23_S_ha_descarregat_l_arxiu_Zip_o_la_carpeta Archive_23_24_M_dul_de_curs_vist Archive_23_24_S_ha_descarregat_l_arxiu_Zip_o_la_carpeta Carpeta_Apunts_Tema_1_Din_mica_M_dul_de_curs_vist Carpeta_Apunts_Tema_1_Din_mica_S_ha_descarregat_l_arxiu_Zip_o_la_carpeta Course_Information_M_dul_de_curs_vist Course_Root_Activitat_recent_vista Course_Root_Curs_vist Course_Root_Informe_d_usuari_del_curs_vist Course_Root_Llista_d_inst_ncies_de_m_duls_de_curs_vistos Course_Root_Perfil_de_l_usuari_mostrat Course_Root_S_ha_actualitzat_l_element_de_qualificaci_ Course_Root_S_ha_afegit_el_membre_del_grup Course_Root_S_ha_suprimit_el_membre_del_grup Course_Root_S_ha_visualitzat_l_informe_d_usuari_de_qualificacions Course_Root_S_ha_visualitzat_l_informe_de_resum_de_qualificacions Course_Root_Section_viewed Course_Root_Usuari_qualificat Curs_Fonaments_de_F_sica_2024_24290_T2_Curs_vist Curs_Fonaments_de_F_sica_2024_24290_T2_Informe_d_usuari_del_curs_vist Curs_Fonaments_de_F_sica_2024_24290_T2_Llista_d_inst_ncies_de_m_duls_de_curs_vistos Curs_Fonaments_de_F_sica_2024_24290_T2_Perfil_de_l_usuari_mostrat Curs_Fonaments_de_F_sica_2024_24290_T2_S_ha_visualitzat_l_informe_d_usuari_de_qualificacions Curs_Fonaments_de_F_sica_2024_24290_T2_Section_viewed Curs_Fonaments_de_F_sica_2024_24290_T2_Usuari_qualificat Exam_Optical_Sheet_Instr_M_dul_de_curs_vist Exercicis_Sessi_10_M_dul_de_curs_vist Exercicis_Sessi_10_Quiz_attempt_updated Exercicis_Sessi_10_S_ha_comen_at_l_intent_del_q_estionari Exercicis_Sessi_10_S_ha_mostrat_el_resum_de_l_intent_del_q_estionari Exercicis_Sessi_10_S_ha_revisat_l_intent_del_q_estionari Exercicis_Sessi_10_S_ha_tram_s_l_intent_del_q_estionari Exercicis_Sessi_10_S_han_mostrat_l_intent_del_q_estionari Exercicis_Sessi_11_M_dul_de_curs_vist Exercicis_Sessi_12_M_dul_de_curs_vist Exercicis_Sessi_14_M_dul_de_curs_vist Exercicis_Sessi_1_M_dul_de_curs_vist Exercicis_Sessi_1_Quiz_attempt_auto_saved Exercicis_Sessi_1_Quiz_attempt_question_restarted Exercicis_Sessi_1_Quiz_attempt_updated Exercicis_Sessi_1_S_ha_comen_at_l_intent_del_q_estionari Exercicis_Sessi_1_S_ha_mostrat_el_resum_de_l_intent_del_q_estionari Exercicis_Sessi_1_S_ha_revisat_l_intent_del_q_estionari Exercicis_Sessi_1_S_ha_tram_s_l_intent_del_q_estionari Exercicis_Sessi_1_S_han_mostrat_l_intent_del_q_estionari Exercicis_Sessi_2_M_dul_de_curs_vist Exercicis_Sessi_2_Quiz_attempt_auto_saved Exercicis_Sessi_2_Quiz_attempt_question_restarted Exercicis_Sessi_2_Quiz_attempt_updated Exercicis_Sessi_2_S_ha_comen_at_l_intent_del_q_estionari Exercicis_Sessi_2_S_ha_mostrat_el_resum_de_l_intent_del_q_estionari Exercicis_Sessi_2_S_ha_revisat_l_intent_del_q_estionari Exercicis_Sessi_2_S_ha_tram_s_l_intent_del_q_estionari Exercicis_Sessi_2_S_han_mostrat_l_intent_del_q_estionari Exercicis_Sessi_3_M_dul_de_curs_vist Exercicis_Sessi_3_Quiz_attempt_auto_saved Exercicis_Sessi_3_Quiz_attempt_question_restarted Exercicis_Sessi_3_Quiz_attempt_updated Exercicis_Sessi_3_S_ha_comen_at_l_intent_del_q_estionari Exercicis_Sessi_3_S_ha_mostrat_el_resum_de_l_intent_del_q_estionari Exercicis_Sessi_3_S_ha_revisat_l_intent_del_q_estionari Exercicis_Sessi_3_S_ha_tram_s_l_intent_del_q_estionari Exercicis_Sessi_3_S_han_mostrat_l_intent_del_q_estionari Exercicis_Sessi_4_M_dul_de_curs_vist Exercicis_Sessi_4_Quiz_attempt_auto_saved Exercicis_Sessi_4_Quiz_attempt_question_restarted Exercicis_Sessi_4_Quiz_attempt_updated Exercicis_Sessi_4_S_ha_comen_at_l_intent_del_q_estionari Exercicis_Sessi_4_S_ha_mostrat_el_resum_de_l_intent_del_q_estionari Exercicis_Sessi_4_S_ha_revisat_l_intent_del_q_estionari Exercicis_Sessi_4_S_ha_tram_s_l_intent_del_q_estionari Exercicis_Sessi_4_S_han_mostrat_l_intent_del_q_estionari Exercicis_Sessi_7_M_dul_de_curs_vist Exercicis_Sessi_7_Quiz_attempt_auto_saved Exercicis_Sessi_7_Quiz_attempt_question_restarted Exercicis_Sessi_7_Quiz_attempt_updated Exercicis_Sessi_7_S_ha_comen_at_l_intent_del_q_estionari Exercicis_Sessi_7_S_ha_mostrat_el_resum_de_l_intent_del_q_estionari Exercicis_Sessi_7_S_ha_revisat_l_intent_del_q_estionari Exercicis_Sessi_7_S_ha_tram_s_l_intent_del_q_estionari Exercicis_Sessi_7_S_han_mostrat_l_intent_del_q_estionari Exercicis_Sessi_9_M_dul_de_curs_vist Exercicis_Sessi_9_Quiz_attempt_auto_saved Exercicis_Sessi_9_Quiz_attempt_question_restarted Exercicis_Sessi_9_Quiz_attempt_updated Exercicis_Sessi_9_S_ha_comen_at_l_intent_del_q_estionari Exercicis_Sessi_9_S_ha_mostrat_el_resum_de_l_intent_del_q_estionari Exercicis_Sessi_9_S_ha_revisat_l_intent_del_q_estionari Exercicis_Sessi_9_S_ha_tram_s_l_intent_del_q_estionari Exercicis_Sessi_9_S_han_mostrat_l_intent_del_q_estionari Exercises_B1_Damped_Forced_Osc_M_dul_de_curs_vist Exercises_B1_Undamped_Osc_M_dul_de_curs_vist Exercises_B2_Waves_Basics_M_dul_de_curs_vist Exercises_B2_Waves_Interf_M_dul_de_curs_vist Exercises_B3_Electrostatics_M_dul_de_curs_vist Exercises_B4_Induction_M_dul_de_curs_vist Exercises_B4_Magnetostatics_M_dul_de_curs_vist File_P1_Material_M_dul_de_curs_vist File_P1_Solution_M_dul_de_curs_vist File_P2_Material_M_dul_de_curs_vist File_P3_Material_M_dul_de_curs_vist File_P4_Material_M_dul_de_curs_vist File_P4_Solution_M_dul_de_curs_vist File_P5_Material_M_dul_de_curs_vist File_P6_Material_M_dul_de_curs_vist File_P7_Material_M_dul_de_curs_vist File_Seminar_1_M_dul_de_curs_vist File_Seminar_2_M_dul_de_curs_vist File_Seminar_3_M_dul_de_curs_vist File_Seminar_4_M_dul_de_curs_vist File_Seminar_5_M_dul_de_curs_vist File_Seminar_6_M_dul_de_curs_vist File_Topic_0_Review_M_dul_de_curs_vist Fitxer_Presentaci_del_curs_M_dul_de_curs_vist Formula_Sheet_M_dul_de_curs_vist F_rums_M_dul_de_curs_vist F_rums_S_ha_mostrat_el_debat Group_Choice_Alt_Assessment_M_dul_de_curs_vist Group_Choice_Alt_Assessment_S_ha_creat_l_elecci_ Group_Choice_Alt_Assessment_S_ha_esborrat_l_elecci_ Other_M_dul_de_curs_vist Other_S_ha_visualitzat_l_estat_de_la_tasca_ Pla_d_Aprenentatge_M_dul_de_curs_vist Pla_d_Aprenentatge_S_ha_visualitzat_el_cap_tol_ Quiz_Review_Block_1_M_dul_de_curs_vist Quiz_Review_Block_1_Quiz_attempt_auto_saved Quiz_Review_Block_1_Quiz_attempt_updated Quiz_Review_Block_1_S_ha_comen_at_l_intent_del_q_estionari Quiz_Review_Block_1_S_ha_mostrat_el_resum_de_l_intent_del_q_estionari Quiz_Review_Block_1_S_ha_revisat_l_intent_del_q_estionari Quiz_Review_Block_1_S_ha_tram_s_l_intent_del_q_estionari Quiz_Review_Block_1_S_han_mostrat_l_intent_del_q_estionari Quiz_Review_Block_2_M_dul_de_curs_vist Quiz_Review_Block_2_Quiz_attempt_auto_saved Quiz_Review_Block_2_Quiz_attempt_updated Quiz_Review_Block_2_S_ha_comen_at_l_intent_del_q_estionari Quiz_Review_Block_2_S_ha_mostrat_el_resum_de_l_intent_del_q_estionari Quiz_Review_Block_2_S_ha_revisat_l_intent_del_q_estionari Quiz_Review_Block_2_S_ha_tram_s_l_intent_del_q_estionari Quiz_Review_Block_2_S_han_mostrat_l_intent_del_q_estionari Quiz_Review_Block_3_M_dul_de_curs_vist Quiz_Review_Block_3_S_ha_comen_at_l_intent_del_q_estionari Quiz_Review_Block_3_S_han_mostrat_l_intent_del_q_estionari Quiz_Review_Block_4_M_dul_de_curs_vist Quiz_Seminar_1_Practice__M_dul_de_curs_vist Quiz_Seminar_1_Practice__Quiz_attempt_auto_saved Quiz_Seminar_1_Practice__Quiz_attempt_updated Quiz_Seminar_1_Practice__S_ha_comen_at_l_intent_del_q_estionari Quiz_Seminar_1_Practice__S_ha_mostrat_el_resum_de_l_intent_del_q_estionari Quiz_Seminar_1_Practice__S_ha_revisat_l_intent_del_q_estionari Quiz_Seminar_1_Practice__S_ha_tram_s_l_intent_del_q_estionari Quiz_Seminar_1_Practice__S_han_mostrat_l_intent_del_q_estionari Quiz_Topic_0_Self_Eval_M_dul_de_curs_vist Quiz_Topic_0_Self_Eval_Quiz_attempt_auto_saved Quiz_Topic_0_Self_Eval_Quiz_attempt_updated Quiz_Topic_0_Self_Eval_S_ha_comen_at_l_intent_del_q_estionari Quiz_Topic_0_Self_Eval_S_ha_mostrat_el_resum_de_l_intent_del_q_estionari Quiz_Topic_0_Self_Eval_S_ha_revisat_l_intent_del_q_estionari Quiz_Topic_0_Self_Eval_S_ha_tram_s_l_intent_del_q_estionari Quiz_Topic_0_Self_Eval_S_han_mostrat_l_intent_del_q_estionari Q_esitonari_P1_M_dul_de_curs_vist Q_esitonari_P1_Quiz_attempt_auto_saved Q_esitonari_P1_Quiz_attempt_updated Q_esitonari_P1_S_ha_comen_at_l_intent_del_q_estionari Q_esitonari_P1_S_ha_mostrat_el_resum_de_l_intent_del_q_estionari Q_esitonari_P1_S_ha_revisat_l_intent_del_q_estionari Q_esitonari_P1_S_ha_tram_s_l_intent_del_q_estionari Q_esitonari_P1_S_han_mostrat_l_intent_del_q_estionari Q_esitonari_P2_M_dul_de_curs_vist Q_esitonari_P2_Quiz_attempt_auto_saved Q_esitonari_P2_Quiz_attempt_updated Q_esitonari_P2_S_ha_comen_at_l_intent_del_q_estionari Q_esitonari_P2_S_ha_mostrat_el_resum_de_l_intent_del_q_estionari Q_esitonari_P2_S_ha_revisat_l_intent_del_q_estionari Q_esitonari_P2_S_ha_tram_s_l_intent_del_q_estionari Q_esitonari_P2_S_han_mostrat_l_intent_del_q_estionari Q_esitonari_P3_M_dul_de_curs_vist Q_esitonari_P3_Quiz_attempt_auto_saved Q_esitonari_P3_Quiz_attempt_updated Q_esitonari_P3_S_ha_comen_at_l_intent_del_q_estionari Q_esitonari_P3_S_ha_mostrat_el_resum_de_l_intent_del_q_estionari Q_esitonari_P3_S_ha_revisat_l_intent_del_q_estionari Q_esitonari_P3_S_ha_tram_s_l_intent_del_q_estionari Q_esitonari_P3_S_han_mostrat_l_intent_del_q_estionari Q_esitonari_P4_M_dul_de_curs_vist Q_esitonari_P4_Quiz_attempt_auto_saved Q_esitonari_P4_Quiz_attempt_updated Q_esitonari_P4_S_ha_comen_at_l_intent_del_q_estionari Q_esitonari_P4_S_ha_mostrat_el_resum_de_l_intent_del_q_estionari Q_esitonari_P4_S_ha_revisat_l_intent_del_q_estionari Q_esitonari_P4_S_ha_tram_s_l_intent_del_q_estionari Q_esitonari_P4_S_han_mostrat_l_intent_del_q_estionari Q_estionari_S1_M_dul_de_curs_vist Q_estionari_S1_Quiz_attempt_auto_saved Q_estionari_S1_Quiz_attempt_updated Q_estionari_S1_S_ha_comen_at_l_intent_del_q_estionari Q_estionari_S1_S_ha_mostrat_el_resum_de_l_intent_del_q_estionari Q_estionari_S1_S_ha_revisat_l_intent_del_q_estionari Q_estionari_S1_S_ha_tram_s_l_intent_del_q_estionari Q_estionari_S1_S_han_mostrat_l_intent_del_q_estionari Q_estionari_S2_M_dul_de_curs_vist Q_estionari_S2_Quiz_attempt_auto_saved Q_estionari_S2_Quiz_attempt_updated Q_estionari_S2_S_ha_comen_at_l_intent_del_q_estionari Q_estionari_S2_S_ha_mostrat_el_resum_de_l_intent_del_q_estionari Q_estionari_S2_S_ha_revisat_l_intent_del_q_estionari Q_estionari_S2_S_ha_tram_s_l_intent_del_q_estionari Q_estionari_S2_S_han_mostrat_l_intent_del_q_estionari Q_estionari_S3_M_dul_de_curs_vist Q_estionari_S3_Quiz_attempt_auto_saved Q_estionari_S3_Quiz_attempt_updated Q_estionari_S3_S_ha_comen_at_l_intent_del_q_estionari Q_estionari_S3_S_ha_mostrat_el_resum_de_l_intent_del_q_estionari Q_estionari_S3_S_ha_revisat_l_intent_del_q_estionari Q_estionari_S3_S_ha_tram_s_l_intent_del_q_estionari Q_estionari_S3_S_han_mostrat_l_intent_del_q_estionari Q_estionari_S4_M_dul_de_curs_vist Q_estionari_S4_Quiz_attempt_auto_saved Q_estionari_S4_Quiz_attempt_updated Q_estionari_S4_S_ha_comen_at_l_intent_del_q_estionari Q_estionari_S4_S_ha_mostrat_el_resum_de_l_intent_del_q_estionari Q_estionari_S4_S_ha_tram_s_l_intent_del_q_estionari Q_estionari_S4_S_han_mostrat_l_intent_del_q_estionari Q_estionari_d_avaluaci_Q_estionari_Preparaci_pr_via_Tema_5_M_dul_de_curs_vist Q_estionari_d_avaluaci_Q_estionari_Preparaci_pr_via_Tema_5_Quiz_attempt_auto_saved Q_estionari_d_avaluaci_Q_estionari_Preparaci_pr_via_Tema_5_Quiz_attempt_updated Q_estionari_d_avaluaci_Q_estionari_Preparaci_pr_via_Tema_5_S_ha_comen_at_l_intent_del_q_estionari Q_estionari_d_avaluaci_Q_estionari_Preparaci_pr_via_Tema_5_S_ha_mostrat_el_resum_de_l_intent_del_q_estionari Q_estionari_d_avaluaci_Q_estionari_Preparaci_pr_via_Tema_5_S_ha_revisat_l_intent_del_q_estionari Q_estionari_d_avaluaci_Q_estionari_Preparaci_pr_via_Tema_5_S_ha_tram_s_l_intent_del_q_estionari Q_estionari_d_avaluaci_Q_estionari_Preparaci_pr_via_Tema_5_S_han_mostrat_l_intent_del_q_estionari Q_estionari_d_avaluaci_Q_estionari_Preparaci_pr_via_Tema_8_M_dul_de_curs_vist Q_estionari_d_avaluaci_Q_estionari_Preparaci_pr_via_Tema_8_Quiz_attempt_auto_saved Q_estionari_d_avaluaci_Q_estionari_Preparaci_pr_via_Tema_8_Quiz_attempt_updated Q_estionari_d_avaluaci_Q_estionari_Preparaci_pr_via_Tema_8_S_ha_comen_at_l_intent_del_q_estionari Q_estionari_d_avaluaci_Q_estionari_Preparaci_pr_via_Tema_8_S_ha_mostrat_el_resum_de_l_intent_del_q_estionari Q_estionari_d_avaluaci_Q_estionari_Preparaci_pr_via_Tema_8_S_ha_revisat_l_intent_del_q_estionari Q_estionari_d_avaluaci_Q_estionari_Preparaci_pr_via_Tema_8_S_ha_tram_s_l_intent_del_q_estionari Q_estionari_d_avaluaci_Q_estionari_Preparaci_pr_via_Tema_8_S_han_mostrat_l_intent_del_q_estionari Session_Schedule_M_dul_de_curs_vist Sim_2_Vibs_In_Phase_M_dul_de_curs_vist Sim_2_Vibs_Opposite_Phase_M_dul_de_curs_vist Sim_2_Vibs_Quadrature_M_dul_de_curs_vist Sim_Superpos_Waves_Opposite_M_dul_de_curs_vist Task_P1_Delivery_Comentari_creat Task_P1_Delivery_M_dul_de_curs_vist Task_P1_Delivery_S_ha_actualitzat_l_estat_de_la_tramesa_ Task_P1_Delivery_S_ha_actualitzat_la_tasca_ Task_P1_Delivery_S_ha_creat_la_tramesa_ Task_P1_Delivery_S_ha_pujat_un_fitxer_ Task_P1_Delivery_S_ha_tram_s_una_tramesa_ Task_P1_Delivery_S_ha_visualitzat_Open_Grader Task_P1_Delivery_S_ha_visualitzat_el_formulari_de_tramesa_ Task_P1_Delivery_S_ha_visualitzat_l_estat_de_la_tasca_ Task_P1_Delivery_S_ha_visualitzat_la_confirmaci_de_la_supressi_de_la_tramesa_ Task_P1_Delivery_S_ha_visualitzat_la_retroacci_ Task_P1_Delivery_Submission_removed_ Task_P4_Delivery_M_dul_de_curs_vist Task_P4_Delivery_S_ha_actualitzat_l_estat_de_la_tramesa_ Task_P4_Delivery_S_ha_actualitzat_la_tasca_ Task_P4_Delivery_S_ha_creat_la_tramesa_ Task_P4_Delivery_S_ha_pujat_un_fitxer_ Task_P4_Delivery_S_ha_tram_s_una_tramesa_ Task_P4_Delivery_S_ha_visualitzat_el_formulari_de_tramesa_ Task_P4_Delivery_S_ha_visualitzat_l_estat_de_la_tasca_ Task_P4_Delivery_S_ha_visualitzat_la_confirmaci_de_la_supressi_de_la_tramesa_ Task_P4_Delivery_S_ha_visualitzat_la_retroacci_ Task_P4_Delivery_Submission_removed_ Teoria_Sessi_10_M_dul_de_curs_vist Teoria_Sessi_11_M_dul_de_curs_vist Teoria_Sessi_12_M_dul_de_curs_vist Teoria_Sessi_13_M_dul_de_curs_vist Teoria_Sessi_14_M_dul_de_curs_vist Teoria_Sessi_1_M_dul_de_curs_vist Teoria_Sessi_2_M_dul_de_curs_vist Teoria_Sessi_3_M_dul_de_curs_vist Teoria_Sessi_4_M_dul_de_curs_vist Teoria_Sessi_5_M_dul_de_curs_vist Teoria_Sessi_6_M_dul_de_curs_vist Teoria_Sessi_7_M_dul_de_curs_vist Teoria_Sessi_8_M_dul_de_curs_vist Teoria_Sessi_9_M_dul_de_curs_vist User_Guide_M_dul_de_curs_vist assistencia_prac p1_q_total p1_pdf_total p1_final total_p1 p2_final total_p2 assistencia_sem s1_final total_s1 s2_final total_s2 repas_b1 repas_b0 p3_final total_p3 p4_q_total p4_pdf_total p4_final total_p4 s3_final total_s3 s4_final total_s4 repas_b2 mitjana_bloc b2_prac b2_sem
feature_infos=[0:32] [0:103] [0:155] [0:78] [1:309] [0:82] [1:260] [2:961] none none [0:4] none [0:3] none [0:5] none [0:11] none [0:11] none [0:309] none none [0:3] [0:6] [0:3] [0:2] [0:37] none [0:16] [0:18] [0:64] none none none [0:6] [0:5] [0:8] [0:2] none none none none none none none none none none [0:11] [0:8] [0:9] [0:28] [0:2] [0:5] [0:6] [0:2] [0:29] [0:5] [0:5] [0:10] [0:28] [0:3] [0:3] [0:5] [0:2] [0:28] [0:8] [0:6] [0:5] [0:26] [0:5] [0:5] [0:9] [0:5] [0:27] [0:11] [0:3] [0:8] [0:26] [0:2] [0:2] [0:5] [0:2] [0:27] [0:13] [0:5] [0:3] [0:15] [0:2] [0:4] [0:4] [0:2] [0:16] [0:4] [0:5] none [0:13] [0:1] [0:3] [0:2] [0:1] [0:13] [0:4] [0:19] [0:2] [0:2] none none none [0:15] [0:3] [0:6] [0:5] [0:5] none none none none [0:18] [0:8] [0:6] [0:5] none none [0:16] [0:5] [0:5] [0:47] [0:21] [0:15] [0:3] [0:2] none none [0:5] [0:5] [0:8] [0:12] [0:22] [0:2] [0:4] [0:4] [0:2] [0:23] [0:8] [0:12] [0:2] [0:2] [0:2] [0:1] [0:1] [0:3] [0:2] none none none [0:5] none none [0:2] none none none [0:2] [0:13] [0:37] [0:15] [0:2] [0:3] [0:3] [0:2] [0:18] [0:16] [0:13] [0:54] [0:1] [0:4] [0:4] [0:1] [0:52] [0:20] [0:14] [0:57] [0:1] [0:3] [0:3] [0:1] [0:58] [0:20] [0:14] [0:41] [0:1] [0:3] none [0:1] [0:41] [0:9] [0:18] [0:46] [0:1] [0:3] [0:1] [0:1] [0:46] [0:17] [0:2] [0:35] [0:1] [0:2] [0:2] [0:1] [0:35] [0:40] [0:3] [0:2] [0:1] [0:2] [0:3] [0:1] [0:3] [0:21] [0:2] [0:2] [0:1] [0:2] [0:3] [0:1] [0:3] [0:45] [0:1] [0:2] [0:1] [0:2] [0:1] [0:3] [0:4] [0:3] [0:2] [0:1] [0:2] [0:2] [0:1] [0:2] [0:5] [0:2] [0:2] [0:1] [0:2] [0:1] [0:1] [0:2] [0:7] none none none none none [0:21] none [0:4] [0:1] [0:5] [0:5] none [0:5] [0:17] none [0:12] none [0:13] none none [0:1] [0:2] [0:2] [0:3] [0:6] none [0:3] none [0:4] [0:6] [0:2] [0:4] [0:2] [0:10] [0:13] [0:9] [0:6] [0:12] [0:10] [0:10] [0:8] [0:5] [0:6] [0:100] [0:10] [0:10] [0:10] [0:10] [0:10] [0:10] [0:100] [0:10] [0:10] [0:10] [0:10] [0:1] [0:1] [0:10] [0:10] [4.5899999999999999:10] [0:10] [0:9.9499999999999993] [1.1299999999999999:9.9499999999999993] [0:10] [0:10] [0:10] [0:10] [0:1] [0:7.9943478260869556] [0:8] [0:4]
tree_sizes=1465 1411 1401 1511 1488 1383 1495 1511 1506 1493 1517 1507 1492 1498 1498 1402 1509 1499 1533 1505 1504 1498 1507 1525 1495 1524 1515 1507 1513 1524 1517 1522 1514 1518 1512 1527 1525 1528 1505 1511 1524 1518 1513 1520 1501 1520 1517 1515 1522 1531 1532 1533 1523 1516 1517 1530 1523 1514 1515 1521 1517 1519 1529 1524 1519 1527 1517 1534 1523 1522 1530 1530 1516 1528 1514 1520 1534 1527 1523 1528 1502 1545 1540 1526 1531 1530 1519 1540 1532 1526 1533 1528 1537 1528 1534 1530 1533 1545 1533 1526 1551 1518 1509 1546 1538 1539 1532 1535 1533 1528 1548 1535 1527 1549 1540 1535 1543 1540 1532 1542 1527 1528 1537 1526 1521 1549 1539 1531 1547 1536 1546 1537 1531 1545 1538 1553 1536 1538 1529 1541 1545 1544 1543 1539 1533 1538 1531 1554 1534 1536 1541 1542 1565 1522 1544 1543 1546 1558 1537 1542 1546 1544 1543 1561 1537 1549 1537 1536 1546 1552 1530 1545 1556 1544 1544 1542 1549 1541 1554 1543 1560 1557 1548 1534 1545 1548 1554 1546 1550 1546 1546 1553 1549 1555 1556 1549 1543 1559 1520 1548 1548 1556 1543 1540 1540 1559 1550 1566 1555 1558 1556 1554 1557 1547 1552 1570 1561 1550 1553 1553 1562 1434 1558 1551 1539 1538 1563 1549 1564 1550 1534 1547 1562 1553 1559 1565 1547 1549 1565 1561 1550 1552 1556 1557 1554 1560 1554 1559 1558 1556 1549 1568 1552 1553 1562 1563 1559 1551 1545 1542 1556 1546 1544 1535 1560 1546 1565 1555 1554 1563 1557 1563 1549 1574 1544 1573 1558 1551 1561 1550 1551 1548 1560 1451 1568 1557 1564 1561 1556 1565 1536 1566 1569 1573 1561 1569 1564 1574 1552 1564 1573 1562 1559 1460 1569 1566 1570 1564 1554 1541 1555 1559 1557 1562 1454 1567 1556 1587 1569 1560 1568 1566 1566 1583 1548 1569 1563 1565 1546 1562 1560 1563 1572 1577 1555 1553 1571 1583 1565 1571 1556 1566 1564 1569 1562 1571 1558 1579 1569 1572 1554 1565 1581 1559 1571 1571 1569 1570 1572 1570 1569 1574 1577 1565 1560 1579 1573 1561 1565 1584 1569 1570 1572 1575 1566 1558 1545 1571 1577 1572 1571 1579 1565 1579 1569 1568 1572 1579 1572 1565 1564 1568 1579 1556 1586 1571 1574 1564 1576 1570 1567 1570 1560 1555 1562 1573 1592 1571 1568 1573 1565 1580 1574 1579 1582 1571 1568 1576 1567 1568 1583 1580 1571 1574 1580 1567 1578 1566 1571 1579 1579 1577 1581 1575 1571 1588 1472 1571 1588 1579 1567 1578 1573 1572 1558 1579 1588 1571 1581 1577 1567 1579 1561 1566 1579 1582 1575 1574 1577 1585 1580 1567 1578 1572 1580 1555 1585 1574 1569 1575 1571 1576 1574 1571 1578 1574 1580 1574 1568 1577 1576 1581 1579 1536 1551 1584 1592 1570 1572 1575 1571 1591 1558 1584 1581 1570 1558 1592 1592 1590 1576 1580 1572 1571 1588 1478 1575 1593 1586 1579 1575 1575 1559 1582 1572 1591 1551 1578 1582 1575 1591 1571 1573 1573 1569 1558 1585 1594 1586 1579 1585 1589 1570 1592 1556 1581 1584 1597 1560 1579 1461 1582 1579 1588 1585 1560 1577 1580 1591 1579 1574 1579 1585 1577 1578 1592 1560 1578 1584 1587 1584 1580 1579 1568 1591 1573 1580 1579 1586 1570 1581 1589 1591 1592 1583 1579 1563 1596 1561 1571 1589 1573 1572 1592 1606 1591 1580 1568 1573 1596 1586 1554 1581 1583 1582 1588 1592 1466 1586 1586 1560 1573 1454 1590 1586 1583

Tree=0
num_leaves=13
num_cat=0
split_feature=321 301 314 300 308 300 314 318 191 125 67 121
split_gain=15.8696 7.16482 6.66553 4.89361 3.65166 3.10821 2.8585 1.44379 1.17626 0.984224 0.588377 0.544816
threshold=7.2302380952380965 9.365000000000002 8.0550000000000015 6.1950000000000012 1.0000000180025095e-35 5.6400000000000015 9.2250000000000014 4.2500000000000009 12.500000000000002 1.0000000180025095e-35 1.0000000180025095e-35 2.5000000000000004
decision_type=2 8 8 10 2 8 8 10 2 2 2 2
left_child=1 3 11 -1 7 -4 -2 -5 -6 -7 -9 -3
right_child=6 2 5 4 8 9 -8 10 -10 -11 -12 -13
leaf_value=0.35007134269044737 0.45097904550735696 0.44450568455111544 0.42348923180845088 0.36619549532309459 0.43060097421451249 0.40486848021510896 0.39949038627709521 0.39728791969501809 0.39949038627709521 0.36746943349100214 0.41926997820895534 0.41065998022679523
leaf_weight=11.023437619209291 5.812916010618209 3.0254021584987614 1.5136603116989142 2.5572994053363782 3.0273206233978271 2.6321190893650055 1.1971153914928434 1.5961538553237917 1.1971153914928434 3.7544147968292236 1.1951969265937803 1.2757720053195951
leaf_count=50 36 19 9 11 18 14 6 8 6 17 7 7
internal_value=0.392793 0.380419 0.407532 0.366722 0.395769 0.386768 0.441816 0.37868 0.421284 0.37632 0.40691 0.439185
internal_weight=39.8079 32.7979 12.2014 20.5965 9.57309 7.90019 7.01003 5.34865 4.22444 6.38653 2.79135 4.30117
internal_count=208 166 66 100 50 40 42 26 24 31 15 26
is_linear=0
shrinkage=1


Tree=1
num_leaves=12
num_cat=0
split_feature=311 319 79 301 27 314 252 206 199 204 125
split_gain=15.3058 6.86851 5.76592 6.04708 3.59749 3.57616 3.44877 1.5504 0.732888 0.671708 0.567961
threshold=8.5200000000000014 6.2500000000000009 1.5000000000000002 9.2350000000000012 1.5000000000000002 7.6300000000000017 1.5000000000000002 1.0000000180025095e-35 7.5000000000000009 14.500000000000002 1.0000000180025095e-35
decision_type=10 10 2 8 2 10 2 2 2 2 2
left_child=2 5 3 9 10 -2 -3 -6 -8 -1 -5
right_child=1 6 -4 4 7 -7 8 -9 -10 -11 -12
leaf_value=-0.058574375122435518 0.015858471233219602 0.045099849789918815 0.01753617562988808 -0.0018503411933112851 -0.0067525279884209158 -0.036490680446027719 0.0097593362319437372 0.028129633887669689 -0.015245260130126424 -0.0087496521363935736 -0.033774998653501032
leaf_weight=12.640472054481512 1.6710598319768895 7.21217432618141 1.8276409357786167 1.6757550835609416 2.472662940621376 2.8917371332645416 1.1938882321119311 2.0619593262672424 1.4337992668151853 1.7701054364442814 3.0496035814285278
leaf_count=57 10 45 11 9 13 13 7 13 7 9 14
internal_value=-0.0161082 0.0168494 -0.0345335 -0.040126 -0.0088247 -0.0186568 0.0338438 0.0140966 -0.00474553 -0.0550976 -0.0276892
internal_weight=39.9009 14.4027 25.4982 23.6706 9.25998 4.5628 9.83986 4.53462 2.62769 14.4106 4.72536
internal_count=208 82 126 115 49 23 59 26 14 66 23
is_linear=0
shrinkage=0.0427189


Tree=2
num_leaves=12
num_cat=0
split_feature=311 299 319 306 314 252 311 311 311 258 180
split_gain=14.2173 6.85562 6.5233 3.74229 3.43617 3.2969 2.58561 2.10323 1.73847 1.47573 0.0607431
threshold=8.5200000000000014 6.3450000000000006 6.2500000000000009 6.2500000000000009 7.6300000000000017 1.5000000000000002 8.4350000000000005 7.5200000000000005 8.3250000000000011 5.5000000000000009 25.500000000000004
decision_type=10 10 10 8 10 2 8 10 10 2 2
left_child=1 6 4 -3 -2 -4 -1 9 -9 -5 -7
right_child=2 3 5 7 -6 10 -8 8 -10 -11 -12
leaf_value=-0.058467071570525067 0.015640147809943803 -0.032976210102798699 0.044068595599762762 0.010494295068859055 -0.035625056007581 0.0011840495079212441 -0.01046889247533536 0.034849143351000901 -0.0068000201584686101 -0.023308285703422735 -0.0071726318794442375
leaf_weight=10.88405741751194 1.6655664592981327 2.2605795413255665 7.1400249749422056 1.9224850535392763 2.9106687605381012 1.2753180265426638 4.2569748163223275 3.0173646807670593 1.3607338666915891 1.9266812354326246 1.3544192165136335
leaf_count=48 10 10 45 11 13 7 22 19 7 9 7
internal_value=-0.0155263 -0.0331979 0.0163315 -0.00430825 -0.018183 0.0329887 -0.0490603 0.0104538 0.024452 -0.00927558 -0.00466756
internal_weight=39.9749 25.6289 14.346 10.4878 4.57624 9.76976 15.141 8.22726 4.3781 3.84917 2.62974
internal_count=208 126 82 56 23 59 70 46 26 20 14
is_linear=0
shrinkage=0.0427189


Tree=3
num_leaves=13
num_cat=0
split_feature=321 310 302 121 300 312 24 191 299 300 52 191
split_gain=13.5042 7.3842 3.31563 3.16809 3.10954 2.43712 2.32949 2.15863 1.54709 0.983043 0.692536 0.466664
threshold=7.2302380952380965 8.7600000000000016 9.365000000000002 1.0000000180025095e-35 7.7900000000000009 9.0750000000000011 3.5000000000000004 9.5000000000000018 7.2350000000000012 8.4150000000000009 13.500000000000002 10.500000000000002
decision_type=2 8 10 2 10 8 2 2 8 10 2 2
left_child=1 2 4 8 10 11 -2 -5 -3 -6 -1 -4
right_child=6 3 5 7 9 -7 -8 -9 -10 -11 -12 -13
leaf_value=-0.057194709139075303 0.039162861960720587 0.0065160944825952936 0.021876341891183589 0.034295726874087426 0.011973567103524619 -0.025883368693382414 -0.0076851561605274484 -0.0065403909024197579 -0.027585367656491777 -0.015912376331822794 -0.0063202196306995102 -0.0017102971025235766
leaf_weight=12.507316619157796 5.546479105949401 2.3055257797241193 1.4185053706169122 2.994350478053093 1.3523175269365304 1.7775093764066694 1.3414348363876341 2.4737462550401688 3.3930899202823639 1.8508170396089552 1.368042767047881 1.6765388548374174
leaf_count=55 35 13 9 19 8 8 7 13 16 9 7 9
internal_value=-0.0150585 -0.0263363 -0.0392171 0.00201027 -0.0469141 -0.00446314 0.0304827 0.0201453 -0.0163557 -0.00403393 -0.054258 0.0146415
internal_weight=40.0057 33.1178 21.951 11.1667 17.0785 4.87255 6.88791 5.4681 5.69862 3.20313 13.8754 3.09504
internal_count=208 166 105 61 79 26 42 32 29 17 62 18
is_linear=0
shrinkage=0.0427189


Tree=4
num_leaves=13
num_cat=0
split_feature=230 300 31 321 306 3 30 180 300 313 173 70
split_gain=15.0538 6.90865 5.17512 3.22146 3.0385 1.73844 1.51484 1.48806 1.11098 1.04244 0.721166 0.58637
threshold=1.0000000180025095e-35 6.3450000000000006 26.500000000000004 6.6789233954451346 inf 1.0000000180025095e-35 9.5000000000000018 21.500000000000004 7.2350000000000012 4.0650000000000004 6.5000000000000009 1.5000000000000002
decision_type=2 8 2 2 8 2 2 2 8 10 2 2
left_child=4 3 5 9 11 6 -3 -7 -6 -2 -9 -1
right_child=1 2 -4 -5 8 7 -8 10 -10 -11 -12 -13
leaf_value=-0.05507343384574391 -0.0008612954800531153 -0.012098862925944916 -0.020436640270232877 0.012702785386892901 0.011922708438056309 0.047748224421083015 0.021237568642613548 0.0153442369930805 -0.016569570337561446 -0.039854702808845677 -0.0093134782769179122 -0.0062819884770092165
leaf_weight=10.44968129694462 1.686439767479899 2.5723209679126735 2.0819944441318503 2.1945527642965317 1.352966547012328 6.7482081651687604 1.4004217833280561 1.6554171293973925 3.232509434223175 4.0875229835510254 1.2065922915935514 1.3668340891599644
leaf_count=46 9 13 10 13 8 43 9 10 16 18 6 7
internal_value=-0.0145088 0.00751187 0.0226135 -0.0201851 -0.0423779 0.0317943 0.00381364 0.0395954 -0.00673587 -0.0327608 0.00550548 -0.0519186
internal_weight=40.0355 23.6335 15.665 7.96852 16.402 13.583 3.97274 9.61022 4.58548 5.77396 2.86201 11.8165
internal_count=208 131 91 40 77 81 22 59 24 27 16 53
is_linear=0
shrinkage=0.0427189


Tree=5
num_leaves=12
num_cat=0
split_feature=230 301 31 298 306 5 191 2 0 52 70
split_gain=14.0323 10.017 5.69543 4.33704 2.81576 2.21544 1.5592 0.94103 0.818274 0.81357 0.511531
threshold=1.0000000180025095e-35 8.3450000000000006 26.500000000000004 9.0650000000000031 inf 1.0000000180025095e-35 12.500000000000002 36.500000000000007 3.5000000000000004 1.0000000180025095e-35 1.5000000000000002
decision_type=2 10 2 8 8 2 2 2 2 2 2
left_child=4 3 5 7 10 -3 -4 -2 -7 -6 -1
right_child=1 2 6 -5 9 8 -8 -9 -10 -11 -12
leaf_value=-0.052989934424352757 -0.002776237145555437 -0.001032959319624858 0.0095484884785830785 0.013612419488700907 -0.014492344828032237 0.0471182841192496 -0.02931826369616157 -0.045875665840473215 0.0036013007363914417 0.010179754638745013 -0.006198035380041331
leaf_weight=10.517408862710001 1.5371735692024238 2.2532242387533179 1.1835180968046182 2.2171120196580896 3.3885287046432486 8.9200127124786359 1.6139935851097105 4.4178178310394287 1.4287705421447743 1.202394440770149 1.3682915121316899
leaf_count=46 8 12 7 13 17 57 7 19 8 7 7
internal_value=-0.0140392 0.00728354 0.0259404 -0.0253279 -0.0408567 0.036766 -0.0164991 -0.0395265 0.0433351 -0.00652302 -0.0500099
internal_weight=40.0482 23.5716 15.3995 8.1721 16.4766 12.602 2.79751 5.95499 10.3488 4.59092 11.8857
internal_count=208 131 91 40 77 77 14 27 65 24 53
is_linear=0
shrinkage=0.0427189


Tree=6
num_leaves=13
num_cat=0
split_feature=230 302 31 298 306 314 297 174 311 300 296 277
split_gain=13.0333 9.4481 5.45413 4.13403 2.61784 2.47992 1.94436 1.44576 1.43399 1.06971 0.895154 0.635112
threshold=1.0000000180025095e-35 8.3450000000000006 26.500000000000004 9.0650000000000031 inf 9.2250000000000014 6.160000000000001 4.5000000000000009 8.8200000000000021 7.2350000000000012 96.430000000000021 1.5000000000000002
decision_type=2 10 2 8 8 8 8 2 10 8 2 2
left_child=4 3 5 7 10 6 11 -2 -4 -6 -1 -3
right_child=1 2 8 -5 9 -7 -8 -9 -10 -11 -12 -13
leaf_value=-0.055320054997034587 -0.04659942026212683 -0.0094166261088948402 -0.028408049189357656 0.013386427768435908 0.011883138414934593 -0.006681883711846478 0.049129231494417086 -0.00094495799121075178 0.0090148484892515063 -0.016007850356347785 -0.012591445405666887 0.013679182350360261
leaf_weight=8.5212894380092639 4.2903524488210687 1.2033946365117985 1.6277378350496285 2.210905298590661 1.3520898520946492 1.3572361618280417 8.4345512688159943 1.6872405111789701 1.1752095222473142 3.2447475641965866 3.4165404438972464 1.4965385794639585
leaf_count=36 18 6 7 13 8 7 55 9 7 16 17 9
internal_value=-0.0136559 0.00697513 0.0251961 -0.0246209 -0.0394223 0.0358745 0.0413913 -0.0384532 -0.0162228 -0.00631332 -0.0482267 0.00384779
internal_weight=40.0178 23.4832 15.2947 8.1885 16.5347 12.4917 11.1345 5.97759 2.80295 4.59684 11.9378 2.69993
internal_count=208 131 91 40 77 77 70 27 14 24 53 15
is_linear=0
shrinkage=0.0427189


Tree=7
num_leaves=13
num_cat=0
split_feature=311 84 301 319 27 110 314 122 299 313 299 301
split_gain=11.1839 5.37153 4.49777 3.44386 2.81537 2.63857 1.78628 1.64041 1.61136 1.3755 0.857835 0.33252
threshold=8.7600000000000016 1.5000000000000002 9.365000000000002 6.2500000000000009 1.5000000000000002 4.5000000000000009 7.6300000000000017 2.5000000000000004 8.2000000000000011 6.5650000000000004 7.2350000000000012 9.7300000000000022
decision_type=10 2 8 10 2 2 10 2 10 10 8 8
left_child=1 2 8 6 10 11 -2 -5 9 -1 -4 -6
right_child=3 -3 4 7 5 -7 -8 -9 -10 -11 -12 -13
leaf_value=-0.054495021239268714 0.013391132177929973 0.01954225986873092 0.0008537137592679432 0.039028251489457245 0.0017313515093556125 -0.017696545986653937 -0.024050340378933169 -0.0026951275955670062 -0.0032703160806055063 -0.0095606310894001435 -0.030973414312860145 0.030814736880381881
leaf_weight=11.396874055266389 1.4922603666782364 2.0980223566293708 1.8363891392946223 5.9930663555860519 1.2736736238002779 1.2794455289840696 2.2133776843547821 1.6464891433715818 2.0873418450355521 3.0301578044891349 3.1061717420816422 2.4970314800739288
leaf_count=49 9 13 10 39 7 6 10 9 11 15 14 16
internal_value=-0.0133323 -0.0268068 -0.0321446 0.0190956 -0.00652985 0.012585 -0.00973644 0.0318549 -0.0441486 -0.0484308 -0.0233822 0.0262218
internal_weight=39.9503 28.6051 26.5071 11.3452 9.99271 5.05015 3.70564 7.63956 16.5144 14.427 4.94256 3.77071
internal_count=208 141 128 67 53 29 19 48 75 64 24 23
is_linear=0
shrinkage=0.0427189


Tree=8
num_leaves=13
num_cat=0
split_feature=321 311 5 287 315 279 297 315 313 7 297 7
split_gain=10.5306 6.82688 3.65673 4.6024 2.8724 2.38118 2.70447 2.76117 1.03893 0.975936 0.599303 0.373115
threshold=7.2302380952380965 8.7600000000000016 1.0000000180025095e-35 2.5000000000000004 9.2250000000000014 1.0000000180025095e-35 6.5150000000000015 7.2550000000000008 3.4400000000000004 279.50000000000006 7.5450000000000008 87.000000000000014
decision_type=2 8 2 2 10 2 10 8 10 2 10 2
left_child=1 5 -3 11 -2 6 -1 8 -8 -9 -11 -4
right_child=4 2 3 -5 -6 -7 7 9 -10 10 -12 -13
leaf_value=-0.051655506256088016 0.037273315671486812 -0.025100951908449038 0.0024217861456908734 -0.021347988266956379 -0.012874503828704635 0.0063934863818334818 -0.0092298527364307326 0.00056893696943638992 0.020838306073480542 -0.0030391747827008321 -0.040479931655688806 0.033966367143324717
leaf_weight=10.916541233658796 5.619696006178855 2.6140887439250937 1.2949113994836787 1.9522749483585355 1.034965932369232 1.4585516303777684 1.1975497156381583 1.7088705003261573 2.137435182929039 1.52235671877861 2.8856914788484573 5.5618547201156616
leaf_count=47 37 12 7 9 5 8 6 9 13 8 12 35
internal_value=-0.0128889 -0.02273 0.00367419 0.0165405 0.0278526 -0.0352843 -0.0387224 -0.0146864 0.0107913 -0.0275364 -0.0341639 0.0306291
internal_weight=39.9048 33.2501 11.4231 8.80904 6.65466 21.827 20.3684 9.4519 3.33498 6.11692 4.40805 6.85677
internal_count=208 166 63 51 42 103 95 48 19 29 20 42
is_linear=0
shrinkage=0.0427189


Tree=9
num_leaves=13
num_cat=0
split_feature=230 301 212 315 300 307 191 300 181 300 180 183
split_gain=11.5346 8.27053 4.84863 5.09724 3.71475 2.33516 2.20325 1.48822 1.11921 0.987166 0.79436 0.669182
threshold=1.0000000180025095e-35 8.3450000000000006 13.500000000000002 9.2250000000000014 6.3450000000000006 inf 8.5000000000000018 8.0800000000000018 2.5000000000000004 7.2350000000000012 8.5000000000000018 17.500000000000004
decision_type=2 10 2 8 8 8 2 8 2 8 2 2
left_child=5 4 3 8 -2 11 -6 -8 -3 -7 -10 -1
right_child=1 2 -4 -5 6 9 7 -9 10 -11 -12 -13
leaf_value=-0.050712716147519731 -0.042812930524667149 0.00075997085034381446 -0.021156703092488328 -0.015399896661423015 0.024736181610653871 0.011652912882855117 -0.027122593829902723 0.010134067233962258 0.0041286823466138035 -0.015070447484283277 0.048847763769579999 -0.010852224226643789
leaf_weight=8.9588264077901858 3.6487439572811136 1.2441885918378801 1.5408397465944279 1.8483347296714789 1.7123484164476401 1.3462176173925389 1.6381489038467409 1.1925364732742307 1.4232650846242894 3.2607607990503311 9.0041988641023618 3.0051185339689246
leaf_count=38 15 7 7 9 11 8 7 7 8 16 60 15
internal_value=-0.0125514 0.00696867 0.02416 0.0323196 -0.0225842 -0.0367154 0.00445756 -0.0143324 0.0415304 -0.00570633 0.0450991 -0.0450104
internal_weight=39.8235 23.2526 15.0608 13.52 8.19178 16.5709 4.54303 2.83069 11.6717 4.60698 10.4275 11.9639
internal_count=208 131 91 84 40 77 25 14 75 24 68 53
is_linear=0
shrinkage=0.0427189


Tree=10
num_leaves=13
num_cat=0
split_feature=321 310 5 276 301 314 196 298 121 297 229 196
split_gain=9.47877 5.1778 3.21771 2.7661 2.31286 2.48357 2.21877 1.81614 1.02927 0.987624 0.944773 0.360833
threshold=7.2302380952380965 8.7600000000000016 1.0000000180025095e-35 1.5000000000000002 9.365000000000002 8.0550000000000015 11.500000000000002 9.0650000000000031 1.0000000180025095e-35 8.615000000000002 3.5000000000000004 12.500000000000002
decision_type=2 8 2 2 10 8 2 10 2 10 2 2
left_child=1 4 -3 -2 7 11 8 9 -4 -1 -8 -6
right_child=3 2 6 -5 5 -7 10 -9 -10 -11 -12 -13
leaf_value=-0.046241956342454628 0.0360591603306923 -0.024402566705569485 0.00087930941399799224 -0.012957984152332031 0.022389867457990452 -0.023525751811153378 -0.020784304442624808 -0.00092430688516539179 0.034815054406504661 -0.0031150489271279287 0.0087238095617836013 -0.0013669659943940744
leaf_weight=13.493810489773756 5.5022514909505835 2.6240594387054434 2.4052837640047056 1.026854023337364 1.5311556905508035 2.2128666490316391 1.5316336899995806 2.2285804301500312 3.3553811460733414 1.5308295637369145 1.1513519138097761 1.1020101159811018
leaf_count=59 37 12 13 5 10 10 7 12 22 8 7 6
internal_value=-0.0123046 -0.0216029 0.00216622 0.0266514 -0.0323064 -0.00340185 0.014775 -0.0386625 0.0259288 -0.0431387 -0.0102297 0.0170854
internal_weight=39.6961 33.167 11.0677 6.52911 22.0993 4.84603 8.44365 17.2532 5.76066 15.0246 2.68299 2.63317
internal_count=208 166 61 42 105 26 49 79 35 67 14 16
is_linear=0
shrinkage=0.0427189


Tree=11
num_leaves=13
num_cat=0
split_feature=230 301 207 314 300 175 314 300 70 183 297 183
split_gain=10.4447 7.46859 4.59277 4.80885 3.51554 2.40363 2.1164 1.82809 0.574539 0.519213 0.676027 0.152815
threshold=1.0000000180025095e-35 8.3450000000000006 13.500000000000002 9.2250000000000014 6.3450000000000006 19.500000000000004 8.8550000000000022 7.2350000000000012 1.5000000000000002 9.5000000000000018 5.3550000000000013 8.5000000000000018
decision_type=2 10 2 8 8 2 8 8 2 2 10 2
left_child=6 4 3 9 -2 11 8 -8 -1 -3 -11 -6
right_child=1 2 -4 -5 5 -7 7 -9 -10 10 -12 -13
leaf_value=-0.046883883240333782 -0.04100543305928811 0.0046973635569341077 -0.020689882089999511 -0.014954679317019206 0.002025876975405432 -0.019826389491777372 0.015367974407287507 -0.019652191451066201 -0.0046196178242033752 0.0042858609941259854 0.047078933086241045 0.024900594438519687
leaf_weight=9.7480414062738436 3.6425313353538522 1.5247737467288942 1.5463137477636326 1.8512572795152671 1.2761195600032817 1.5481445789337156 1.6576260924339283 3.77236507833004 1.382872849702834 1.4253013283014286 8.5125044882297498 1.7105825245380399
leaf_count=42 15 9 7 9 7 7 10 18 7 8 58 11
internal_value=-0.0118987 0.00678774 0.0232522 0.0313114 -0.0212902 0.00478389 -0.0348567 -0.00725254 -0.0437928 0.0403842 0.0434304 0.021155
internal_weight=39.5984 23.0375 14.8602 13.3138 8.17738 4.53485 16.5609 5.42999 11.1309 11.4626 9.93781 2.9867
internal_count=208 131 91 84 40 25 77 28 49 75 66 18
is_linear=0
shrinkage=0.0427189


Tree=12
num_leaves=13
num_cat=0
split_feature=230 301 196 314 282 297 306 7 180 296 183 4
split_gain=9.7156 7.06329 3.64373 3.36889 4.1967 2.16676 1.99695 1.8815 1.69286 0.872832 0.858918 0.587286
threshold=1.0000000180025095e-35 8.3450000000000006 8.5000000000000018 9.2250000000000014 1.0000000180025095e-35 8.4600000000000026 inf 51.500000000000007 8.5000000000000018 96.430000000000021 17.500000000000004 44.500000000000007
decision_type=2 10 2 8 2 8 8 2 2 2 2 2
left_child=6 2 -2 4 8 -4 9 -8 -3 -1 -11 -10
right_child=1 3 5 -5 -6 -7 7 -9 11 10 -12 -13
leaf_value=-0.047992479037458499 0.012215966884396698 -0.0011451126752068648 -0.04481773348200669 -0.014704579409188331 -0.016859937187316858 0.0044072833752506315 -0.023375658890294887 0.012681682520040212 0.0049963566009002753 -0.020090457476542461 0.007078545085635852 0.046246968808044651
leaf_weight=8.5150261670351046 2.5988328605890292 1.6584534049034072 4.1281182616949081 1.8551635593175895 1.2823700457811362 1.4377788752317426 1.8114226609468449 2.8008303344249725 1.5341420769691456 1.8216603100299829 1.6035919934511182 8.3991387635469419
leaf_count=36 15 9 17 9 6 8 8 16 9 8 9 58
internal_value=-0.0116442 0.00647013 -0.0208029 0.0225821 0.0297744 -0.0350768 -0.0337594 -0.00518668 0.0374129 -0.0414392 -0.0100499 0.0425911
internal_weight=39.4465 22.894 8.16473 14.7293 12.8741 5.5659 16.5525 4.61225 11.5917 11.9403 3.42525 9.93328
internal_count=208 131 40 91 82 25 77 24 76 53 17 67
is_linear=0
shrinkage=0.0427189


Tree=13
num_leaves=13
num_cat=0
split_feature=230 301 31 196 300 315 306 207 196 300 296 183
split_gain=9.11144 6.65883 4.70843 3.47864 2.18711 1.93643 1.85904 1.59802 1.26703 0.881376 0.79182 0.832824
threshold=1.0000000180025095e-35 8.3450000000000006 26.500000000000004 8.5000000000000018 7.5250000000000012 9.2250000000000014 inf 12.500000000000002 12.500000000000002 7.2350000000000012 96.430000000000021 17.500000000000004
decision_type=2 10 2 2 8 8 8 2 2 8 2 2
left_child=6 3 5 -2 -5 7 10 -3 -4 -8 -1 -12
right_child=1 2 8 4 -6 -7 9 -9 -10 -11 11 -13
leaf_value=-0.046586237561669616 0.011988715628491768 0.041561662373561847 0.0082774747737146045 -0.044055831290403136 0.0048091125194277039 -0.005584656420544923 0.011192572752560815 -0.0042826987745777168 -0.027306905425928861 -0.014023739771709813 -0.019774947723112186 0.0069785041740303647
leaf_weight=8.4917484521865862 2.5940678417682665 9.5234806239604897 1.131358087062835 4.121797502040863 1.4391698390245435 1.3652128577232368 1.3342381566762913 0.94403664767742235 1.6316632330417631 3.2753823697566986 1.8213255107402795 1.6017500758171079
leaf_count=36 15 65 7 17 8 7 8 5 7 16 8 9
internal_value=-0.0114443 0.00618359 0.0219272 -0.0202639 -0.0342171 0.0322986 -0.0328498 0.0373901 -0.0160628 -0.00515022 -0.0402773 -0.00988824
internal_weight=39.2752 22.7508 14.5958 8.15504 5.56097 11.8327 16.5244 10.4675 2.76302 4.60962 11.9148 3.42308
internal_count=208 131 91 40 25 77 77 70 14 24 53 17
is_linear=0
shrinkage=0.0427189


Tree=14
num_leaves=13
num_cat=0
split_feature=230 299 201 0 206 306 7 303 258 183 303 121
split_gain=8.51162 4.15297 3.95524 3.39944 2.60344 1.7653 1.80529 1.71911 1.37401 0.599732 0.802494 0.477925
threshold=1.0000000180025095e-35 6.3450000000000006 1.5000000000000002 2.5000000000000004 1.0000000180025095e-35 inf 51.500000000000007 79.165000000000006 8.5000000000000018 17.500000000000004 29.165000000000003 1.0000000180025095e-35
decision_type=2 8 2 2 2 8 2 2 2 2 2 2
left_child=5 7 3 11 -5 9 -7 -2 -9 -1 -11 -3
right_child=1 2 -4 4 -6 6 -8 8 -10 10 -12 -13
leaf_value=-0.044363257662344266 0.010650170231682533 0.0078086657032088213 -0.018347057161286127 -0.026850992247236975 0.019153928773206465 -0.022797687126679247 0.012508145611569323 -0.029741802582262861 0.0055890613324082834 -0.019598201009688468 0.007014124422691813 0.043221040468275976
leaf_weight=8.8801378160715121 1.8633167594671265 2.4914498031139356 2.062907174229621 1.6396322399377814 1.3180416524410248 1.8166222870349873 2.7944994270801544 5.2397350519895554 1.5052570104598997 1.397102385759353 1.6033890545368192 6.4840795248746872
leaf_count=38 11 15 10 7 9 8 16 25 9 6 9 45
internal_value=-0.0112416 0.0058823 0.0187532 0.027638 -0.00703364 -0.0319223 -0.00497745 -0.0144636 -0.0225777 -0.0391733 -0.00903971 0.037936
internal_weight=39.0962 22.6044 13.9961 11.9332 2.95767 16.4918 4.61112 8.60831 6.74499 11.8806 3.00049 8.97553
internal_count=208 131 86 76 16 77 24 45 34 53 15 60
is_linear=0
shrinkage=0.0427189


Tree=15
num_leaves=12
num_cat=0
split_feature=230 297 201 310 0 204 300 252 1 61 298
split_gain=8.04128 6.25055 4.52028 3.3476 2.31769 1.82141 1.62464 1.23165 0.680716 0.436062 0.0151798
threshold=1.0000000180025095e-35 6.5400000000000009 1.5000000000000002 8.5200000000000014 2.5000000000000004 9.5000000000000018 4.3550000000000013 1.5000000000000002 2.5000000000000004 2.5000000000000004 7.8150000000000013
decision_type=2 8 2 8 2 2 8 2 2 2 10
left_child=6 3 4 10 8 -5 -1 -6 -3 -8 -2
right_child=1 2 -4 5 7 -7 9 -9 -10 -11 -12
leaf_value=0.0034528433470093537 -0.036842519039780738 0.0033506310676919776 -0.018243491500260844 0.024721123032070625 0.014299045766666298 -0.01357286835080594 -0.036970781932788514 -0.017198813055230629 0.044099482081352614 -0.0031945351383877831 -0.0068786311392314281
leaf_weight=1.6718331277370477 3.772980511188508 1.3932990878820399 2.057989537715911 2.0129617750644697 1.5981211811304084 1.4293068349361417 13.392679825425146 1.2657663077116013 7.2226065397262573 1.382862702012061 1.7513454854488371
leaf_count=9 16 8 10 14 10 7 61 6 51 7 9
internal_value=-0.0109727 0.00571676 0.0221376 -0.018388 0.0317267 0.00991948 -0.0310865 -0.00132213 0.0401512 -0.0349177 -0.0332499
internal_weight=38.9518 22.5044 13.5378 8.96659 11.4798 3.44227 16.4474 2.86389 8.61591 14.7755 5.52433
internal_count=208 131 85 46 75 21 77 16 59 68 25
is_linear=0
shrinkage=0.0427189


Tree=16
num_leaves=13
num_cat=0
split_feature=311 321 79 125 307 204 236 310 313 299 310 299
split_gain=7.28457 4.06219 2.98205 3.19576 3.28554 2.73257 2.26795 1.50808 0.930676 0.914642 0.0745718 0.0215241
threshold=8.7600000000000016 7.2302380952380965 1.5000000000000002 1.0000000180025095e-35 8.2500000000000018 10.500000000000002 1.0000000180025095e-35 7.9500000000000011 5.9400000000000004 8.2600000000000016 8.5200000000000014 6.29
decision_type=10 2 2 2 8 2 2 10 10 8 10 10
left_child=1 2 3 4 11 6 -2 9 -7 -6 -5 -1
right_child=5 -3 -4 10 7 8 -8 -9 -10 -11 -12 -13
leaf_value=-0.029836216093218924 0.036564865940182781 0.01780360984490682 0.013407173783729256 -0.041903876080654247 0.031075443296564625 0.009551733551452642 -0.0093251119751281281 -0.010808135491098523 -0.017927825225374887 -0.0026254503877950679 -0.0061586944373658867 -0.0044682954973774228
leaf_weight=2.6079864799976433 5.7523327395319921 2.1712689995765677 1.4644034057855595 14.000612407922743 2.339982241392137 1.2355912774801256 1.1427898332476614 1.4567531794309614 2.5819043591618538 1.3924193084239957 1.3061478435993183 1.3479460924863813
leaf_count=11 40 15 9 63 15 8 6 7 13 7 7 7
internal_value=-0.0106757 -0.0215175 -0.0263689 -0.0299974 -0.0067275 0.0161924 0.0284202 0.0130265 -0.00873233 0.0230197 -0.040412 -0.0269717
internal_weight=38.8001 28.0875 25.9163 24.4518 9.14509 10.7126 6.89512 5.18915 3.8175 3.7324 15.3068 3.95593
internal_count=208 141 126 117 47 67 46 29 21 22 70 18
is_linear=0
shrinkage=0.0427189


Tree=17
num_leaves=13
num_cat=0
split_feature=321 310 75 5 276 196 27 6 313 229 20 188
split_gain=6.88569 3.88138 2.82602 2.71191 2.38276 1.98788 1.1391 1.51467 1.05207 0.733455 0.602631 0.230002
threshold=7.2302380952380965 8.7600000000000016 9.5000000000000018 1.0000000180025095e-35 1.5000000000000002 11.500000000000002 3.5000000000000004 90.000000000000014 6.5650000000000004 3.5000000000000004 28.500000000000004 22.500000000000004
decision_type=2 8 2 2 2 2 2 2 10 2 2 2
left_child=1 2 6 -3 -2 10 8 -8 11 -7 -5 -1
right_child=4 3 -4 5 -6 9 7 -9 -10 -11 -12 -13
leaf_value=-0.042068522579613896 0.032850589760501717 -0.021936666492945581 0.012148389786670879 0.00068320656717426914 -0.01248103141139194 -0.018866001564026274 0.012706617815186285 -0.0205343713031911 -0.0044824538070001073 0.0074869976165980378 0.030307376071494325 -0.0053920457400578404
leaf_weight=12.286614939570436 5.1184708699583998 2.6398859471082678 1.4168596416711796 1.7073638886213283 1.0168766379356382 1.5153304338455202 2.003671094775199 2.029557466506958 2.5966284424066535 1.0914549380540846 3.9035433530807495 1.343786448240279
leaf_count=55 37 12 9 9 5 7 12 9 13 7 26 7
internal_value=-0.0102968 -0.0182083 -0.027553 0.00242735 0.0236609 0.0141337 -0.0315792 -0.00567297 -0.0360669 -0.009755 0.0247576 -0.0401296
internal_weight=38.67 32.5347 21.6771 10.8576 6.13535 8.21769 20.2603 4.03323 16.227 2.60679 5.61091 13.6304
internal_count=208 166 105 61 42 49 96 21 75 14 35 62
is_linear=0
shrinkage=0.0427189


Tree=18
num_leaves=13
num_cat=0
split_feature=311 84 125 307 204 239 295 313 122 137 311 311
split_gain=6.42605 3.74351 3.28313 3.7629 2.55887 2.16497 1.53004 0.886936 0.822565 0.827154 0.648785 0.102958
threshold=8.7600000000000016 1.5000000000000002 1.0000000180025095e-35 8.2500000000000018 10.500000000000002 1.0000000180025095e-35 1.0000000180025095e-35 5.9400000000000004 2.5000000000000004 1.0000000180025095e-35 7.9150000000000009 8.6350000000000033
decision_type=10 2 2 8 2 2 2 10 2 2 10 8
left_child=1 2 3 -1 5 -2 11 -6 9 10 -4 -5
right_child=4 -3 8 6 7 -7 -8 -9 -10 -11 -12 -13
leaf_value=-0.025923169013499458 0.035455060419968362 0.018139456986808196 -0.021255982858472716 0.029570236834151897 0.009303982650080202 -0.0092773966896658091 -0.0096000283071439891 -0.017571730199928359 -0.0012771458425976756 -0.046660617099399872 0.002100009973700535 0.0051401215509114147
leaf_weight=3.9312583655118987 5.6263974606990796 1.9914142116904248 4.4403350204229382 2.2537301331758508 1.2237216681241991 1.1384439542889593 1.4355714470148084 2.5795561745762825 1.471201255917548 8.0927030444145185 2.3167863488197327 2.0170571058988571
leaf_count=18 40 13 21 15 8 6 7 13 8 35 13 11
internal_value=-0.00998625 -0.0201676 -0.0247351 -0.00322899 0.0154001 0.0273717 0.0160319 -0.00862284 -0.0348815 -0.0374103 -0.0151068 0.0250683
internal_weight=38.5182 27.9501 25.9586 9.63762 10.5681 6.76484 5.70636 3.80328 16.321 14.8498 6.75712 4.27079
internal_count=208 141 128 51 67 46 33 21 77 69 34 26
is_linear=0
shrinkage=0.0427189


Tree=19
num_leaves=13
num_cat=0
split_feature=230 297 252 310 311 306 7 276 258 204 296 301
split_gain=6.81935 5.65275 3.22086 2.76333 2.37416 1.72182 1.70557 1.3475 1.25456 1.15669 0.856471 0.056075
threshold=1.0000000180025095e-35 6.3350000000000009 1.5000000000000002 8.5200000000000014 7.5200000000000005 inf 51.500000000000007 1.0000000180025095e-35 5.5000000000000009 9.5000000000000018 96.430000000000021 9.2350000000000012
decision_type=2 8 2 10 10 8 2 2 2 2 2 10
left_child=5 3 4 11 8 10 -7 -4 -3 -5 -1 -2
right_child=1 2 7 9 -6 6 -8 -9 -10 -11 -12 -13
leaf_value=-0.041633270973186233 -0.035778368864265109 0.015099003223837884 0.011552596507989949 0.021058425591940069 0.039821681877432784 -0.020873901853848745 0.013254605457553683 -0.020895297087415558 -0.016142508229966705 -0.01105188325519442 -0.0076086430753241679 -0.0052378383352247029
leaf_weight=8.2788325697183627 3.5625672936439541 1.5051730722188934 1.4843924641609185 1.6500865221023562 7.4869466945528984 1.8252667635679234 2.8038158565759659 2.324135035276413 1.6674457937479017 1.0423882305622099 3.3918304592370978 1.3558442294597624
leaf_count=36 15 9 10 12 54 8 16 11 8 5 17 7
internal_value=-0.00969284 0.00580435 0.0201446 -0.0193868 0.0301079 -0.0282519 -0.00317884 -0.00873458 -0.00117683 0.00935947 -0.0354312 -0.0326572
internal_weight=38.3787 22.079 14.4681 7.61089 10.6596 16.2997 4.62908 3.80853 3.17262 2.69247 11.6707 4.91841
internal_count=208 131 92 39 71 77 24 21 17 17 53 22
is_linear=0
shrinkage=0.0427189


Tree=20
num_leaves=13
num_cat=0
split_feature=321 310 75 5 175 276 27 298 312 312 314 173
split_gain=6.05853 3.29521 2.54073 2.47155 2.27969 2.24966 1.06821 2.10824 1.06405 3.91752 0.625783 0.558172
threshold=7.2302380952380965 8.7600000000000016 9.5000000000000018 1.0000000180025095e-35 15.500000000000002 1.5000000000000002 3.5000000000000004 5.9400000000000004 8.1300000000000008 7.3050000000000006 7.5550000000000006 4.5000000000000009
decision_type=2 8 2 2 2 2 2 10 8 10 8 2
left_child=1 2 6 -3 -5 -2 8 -8 9 -1 -6 -11
right_child=5 3 -4 4 10 -7 7 -9 -10 11 -12 -13
leaf_value=-0.031986130926076189 0.031717272038980587 -0.02101010921515746 0.011866477972322518 0.026341197221357037 0.0053483643374656626 -0.012286498192109894 -0.02198143404992068 0.017136283970992962 -0.041914230711819565 0.024406987057612909 -0.01858463317394099 -0.0020926159902163242
leaf_weight=3.4637663066387274 4.9697758778929702 2.63926176726818 1.3970722258090962 4.9537810981273633 1.5973813533782961 1.0135205984115598 2.248391062021255 1.7427261322736738 9.7204433530569059 1.4064619392156603 1.5443730950355528 1.4660559296607969
leaf_count=15 37 12 9 32 10 5 10 11 43 9 7 8
internal_value=-0.0095144 -0.0169545 -0.0255988 0.00218349 0.0134831 0.0226052 -0.0294552 -0.00487047 -0.033781 -0.0116033 -0.0098035 0.0168203
internal_weight=38.163 32.1797 21.4449 10.7348 8.09554 5.9833 20.0478 3.99112 16.0567 6.33628 3.14175 2.87252
internal_count=208 166 105 61 49 42 96 21 75 32 17 17
is_linear=0
shrinkage=0.0427189


Tree=21
num_leaves=13
num_cat=0
split_feature=230 301 31 300 191 270 307 7 300 296 312 183
split_gain=6.21297 5.00752 4.04247 2.82017 1.67652 1.6436 1.53381 1.62876 1.16414 0.825506 0.774658 0.686671
threshold=1.0000000180025095e-35 8.3450000000000006 26.500000000000004 6.3450000000000006 8.5000000000000018 1.0000000180025095e-35 inf 51.500000000000007 8.0800000000000018 96.430000000000021 9.6350000000000033 17.500000000000004
decision_type=2 10 2 8 2 2 8 2 8 2 10 2
left_child=6 3 5 -2 -5 -3 9 -8 -6 -1 -7 -11
right_child=1 2 -4 4 8 10 7 -9 -10 11 -12 -13
leaf_value=-0.03991018630220828 -0.035379244193642655 -0.0017461284011602827 -0.01541847242322778 0.023002949286830984 -0.022979750617990267 0.039883255817464922 -0.020452709315327687 0.012918328115585426 0.0096374312258957779 -0.016429036434205537 0.0017967972087040286 0.0073528079776276787
leaf_weight=8.1701139807701129 3.515560224652293 2.2266234830021849 2.7025000751018515 1.6295547783374784 1.629956975579262 7.5315685570240003 1.824358969926833 2.7943327724933624 1.1630019694566724 1.784491524100303 1.4094623401761053 1.5949497222900388
leaf_count=36 15 13 14 11 7 55 8 16 7 8 9 9
internal_value=-0.00925576 0.00563523 0.0196448 -0.0174784 0.00548167 0.0296439 -0.0270108 -0.00318488 -0.0114696 -0.0338375 0.035897 -0.00705455
internal_weight=37.9765 21.8082 13.8702 7.93807 4.42251 11.1677 16.1682 4.61869 2.79296 11.5496 8.94103 3.37944
internal_count=208 131 91 40 25 77 77 24 14 53 64 17
is_linear=0
shrinkage=0.0427189


Tree=22
num_leaves=13
num_cat=0
split_feature=230 297 201 301 314 266 314 7 212 312 299 7
split_gain=5.8554 5.1024 3.84207 2.66758 1.52321 1.51852 1.95248 1.3239 1.27322 1.16838 0.990593 0.926956
threshold=1.0000000180025095e-35 6.5400000000000009 1.5000000000000002 9.2350000000000012 8.8550000000000022 6.5000000000000009 9.2250000000000014 51.500000000000007 12.500000000000002 7.7700000000000005 6.1950000000000012 170.00000000000003
decision_type=2 8 2 8 8 2 8 2 2 8 10 2
left_child=4 3 5 10 9 6 -3 -6 -5 -1 -2 -9
right_child=1 2 -4 8 7 -7 -8 11 -10 -11 -12 -13
leaf_value=-0.004090008033667691 -0.034414758521714078 0.041030506083148656 -0.016784258586140351 0.022441436851780922 -0.020129435883227229 -0.0037462004928564474 -0.0039397760361565455 0.019652509334301047 -0.011331547692142913 -0.040445240411791629 0.0021206981670692034 -0.0079921542515716711
leaf_weight=2.7852371633052835 4.6829983890056619 7.9085679948329899 2.0233179628849021 1.7848580032587062 1.8244495689868916 1.5371307656168927 1.4864324331283576 1.9794925451278689 1.016059026122093 7.8850917369127282 1.2189918607473371 1.6176169216632841
leaf_count=14 21 58 10 13 8 9 8 12 5 35 7 8
internal_value=-0.00909626 0.00542437 0.0205588 -0.0165827 -0.0263538 0.0296611 0.0347023 -0.00434849 0.0106671 -0.034025 -0.0287373 0.00927392
internal_weight=37.7502 21.6584 12.9554 8.70291 16.0919 10.9321 9.395 5.42156 2.80092 10.6703 5.90199 3.59711
internal_count=208 131 85 46 77 75 66 28 18 49 28 20
is_linear=0
shrinkage=0.0427189


Tree=23
num_leaves=13
num_cat=0
split_feature=311 84 302 204 31 239 299 299 177 314 2 297
split_gain=5.1507 3.28694 2.33002 2.32676 2.1168 1.96998 1.30527 0.867178 1.06934 4.46725 0.688671 0.467737
threshold=8.7600000000000016 1.5000000000000002 9.365000000000002 10.500000000000002 1.0000000180025095e-35 1.0000000180025095e-35 5.455000000000001 8.2000000000000011 1.0000000180025095e-35 6.9350000000000014 39.500000000000007 8.3900000000000023
decision_type=10 2 8 2 2 2 10 10 2 10 2 10
left_child=1 2 7 5 6 -2 -4 8 9 -1 -5 -8
right_child=3 -3 4 10 -6 -7 11 -9 -10 -11 -12 -13
leaf_value=-0.033064003994287168 0.033729091533884897 0.017680169324526925 -0.007663012141211567 0.0080591187456555378 -0.020784299911048312 -0.0090518157598788451 0.026952963221789587 -0.0017479801112420413 -0.042740428471219845 0.02106035143515541 -0.016131489313657366 -0.0015784531480394881
leaf_weight=2.9778424054384294 5.3598403111100179 1.9408355802297581 2.5839222967624647 1.0642848014831545 3.954348236322403 1.1127544492483137 2.2710204049944882 1.9960057288408268 8.4181152433156949 2.3031043037772179 2.6557960733771324 0.89191408455371846
leaf_count=13 40 13 13 7 19 6 16 11 37 14 14 5
internal_value=-0.00894208 -0.0181136 -0.022482 0.0141363 -0.00404193 0.0258189 0.0107281 -0.0313227 -0.0345081 -0.0103979 -0.00868611 0.0221082
internal_weight=37.5298 27.3371 25.3963 10.1927 9.70121 6.47259 5.74686 15.6951 13.6991 5.28095 3.72008 3.16293
internal_count=208 141 128 67 53 46 34 75 64 27 21 21
is_linear=0
shrinkage=0.0427189


Tree=24
num_leaves=13
num_cat=0
split_feature=230 297 201 196 315 266 306 7 213 296 205 183
split_gain=5.43798 4.69138 3.60148 2.43671 1.4374 1.85234 1.35937 1.50769 1.00333 0.823641 0.750415 0.637973
threshold=1.0000000180025095e-35 6.5400000000000009 1.5000000000000002 8.5000000000000018 9.2250000000000014 6.5000000000000009 inf 51.500000000000007 3.5000000000000004 96.430000000000021 1.5000000000000002 17.500000000000004
decision_type=2 8 2 2 8 2 8 2 2 2 2 2
left_child=6 3 4 8 5 -3 9 -8 -2 -1 -9 -11
right_child=1 2 -4 -5 -6 -7 7 10 -10 11 -12 -13
leaf_value=-0.037849466107441485 -0.0086592013907519621 0.040110874357579852 -0.016194561581534418 -0.027861937666422198 -0.003828647924439254 -0.0036152957010245918 -0.019581822475405415 0.02186094577000388 0.021032463702036198 -0.015366156770530355 -0.0055261510276958872 0.0074297192238372183
leaf_weight=8.0067858844995445 1.4096070677042027 7.7355989590287173 2.015875592827796 5.6498399451375008 1.4848572909832007 1.5316758230328558 1.8233785182237632 1.4036913216114046 1.5509828478097913 1.7636394351720821 1.3777114897966383 1.5909172743558881
leaf_count=36 7 58 10 28 8 9 8 9 11 8 7 9
internal_value=-0.00868234 0.00540236 0.0199968 -0.0157989 0.0288973 0.0337885 -0.0253486 -0.00294648 0.00969595 -0.0318393 0.0125336 -0.00617597
internal_weight=37.3446 21.3784 12.768 8.61043 10.7521 9.26727 15.9661 4.60478 2.96059 11.3613 2.7814 3.35456
internal_count=208 131 85 46 75 67 77 24 18 53 16 17
is_linear=0
shrinkage=0.0427189


Tree=25
num_leaves=13
num_cat=0
split_feature=230 302 31 300 175 277 300 312 197 312 293 303
split_gain=5.12382 4.32228 3.61426 2.42051 1.85442 1.52154 1.46238 0.712017 0.524652 0.881473 0.640435 0.394927
threshold=1.0000000180025095e-35 8.3450000000000006 26.500000000000004 6.3450000000000006 19.500000000000004 1.0000000180025095e-35 4.3550000000000013 9.6350000000000033 3.5000000000000004 7.7700000000000005 1.0000000180025095e-35 87.500000000000014
decision_type=2 10 2 8 2 2 8 10 2 10 2 2
left_child=6 3 5 -2 -5 -3 -1 -7 10 -10 -8 -4
right_child=1 2 11 4 -6 7 8 -9 9 -11 -12 -13
leaf_value=0.0055487870687720873 -0.033077919983569945 -0.0019559897999140417 -0.020857376027707947 0.019469894266079032 -0.016889906582889629 0.038159381366202741 -0.035787504918796509 0.0016046858591645271 0.010032495436467313 -0.016702172310867285 -0.0026013755687418995 0.0019112955958779996
leaf_weight=1.6023449897766084 3.4234151095151928 2.1884753406047812 1.3718189001083367 2.8384529501199722 1.5116315484046934 7.2014852538704854 9.3998830765485746 1.3874880969524381 1.4260610193014156 1.7288200408220289 1.7247049808502186 1.316377207636833
leaf_count=9 15 13 6 18 7 55 43 9 8 8 9 8
internal_value=-0.00851516 0.00521087 0.0184195 -0.0163905 0.00505487 0.0281085 -0.0247196 0.0342552 -0.0285037 -0.00563004 -0.0323388 -0.0146575
internal_weight=37.121 21.2391 13.4656 7.7735 4.35008 10.7774 15.8818 8.58897 14.2795 3.15488 11.1246 2.6882
internal_count=208 131 91 40 25 77 77 64 68 16 52 14
is_linear=0
shrinkage=0.0427189


Tree=26
num_leaves=13
num_cat=0
split_feature=307 298 201 302 229 258 205 212 31 174 316 312
split_gain=4.85793 5.53578 3.34714 2.22273 2.10256 1.90713 1.81294 1.28208 0.809208 0.794469 0.598834 0.312483
threshold=7.2500000000000009 5.9400000000000004 1.5000000000000002 9.365000000000002 4.5000000000000009 1.0000000180025095e-35 11.500000000000002 12.500000000000002 1.5000000000000002 4.5000000000000009 7.5400000000000009 8.9700000000000006
decision_type=8 10 2 10 2 2 2 2 2 2 8 8
left_child=4 3 6 5 -1 8 7 10 -2 -7 -3 -5
right_child=1 2 -4 11 -6 9 -8 -9 -10 -11 -12 -13
leaf_value=-0.037882307492850348 0.01458330711235991 0.0026461913175140246 -0.01374746046618544 0.017895687123450906 0.0043090699924056989 -0.034774392137365745 -0.0082333813993433896 -0.004070850593576981 -0.010827128733331862 -0.0017224359341599968 0.040543419539653222 -0.0027367197263439393
leaf_weight=7.5710605382919294 1.8706935942173033 1.3135184124112083 2.5122113153338423 1.2156985178589814 1.9617719203233717 6.9361469298601133 1.0049456804990757 0.91110274195671159 1.291238337755203 1.9205986782908437 7.5114131942391404 0.89267438650131214
leaf_count=35 11 8 13 9 12 32 5 5 6 11 56 5
internal_value=-0.00836241 0.00157586 0.0192325 -0.0154679 -0.0302728 -0.0220176 0.0283048 0.0331603 0.00397647 -0.0299221 0.0370667 0.0127283
internal_weight=36.9131 27.3802 13.2532 14.1271 9.53283 12.0187 10.741 9.73603 3.16193 8.85675 8.82493 2.10837
internal_count=208 161 87 74 47 60 74 69 17 43 64 14
is_linear=0
shrinkage=0.0427189


Tree=27
num_leaves=13
num_cat=0
split_feature=230 297 201 302 0 314 300 312 212 252 299 307
split_gain=4.57663 4.18596 3.2643 2.31424 1.91096 1.46625 2.91788 1.39493 1.15529 1.03615 0.822039 0.572519
threshold=1.0000000180025095e-35 6.5400000000000009 1.5000000000000002 9.2350000000000012 2.5000000000000004 8.4550000000000018 7.4450000000000012 7.7700000000000005 12.500000000000002 1.5000000000000002 6.1950000000000012 6.2500000000000009
decision_type=2 8 2 8 2 8 8 8 2 2 10 8
left_child=5 3 4 10 11 7 -7 -1 -5 -6 -2 -3
right_child=1 2 -4 8 9 6 -8 -9 -10 -11 -12 -13
leaf_value=-0.0028398358012753123 -0.031774659680816483 0.0028574995005421371 -0.015460551350429796 0.021545536846823529 0.012779378067903012 0.020892267546191792 -0.020256361831201292 -0.041319076849822667 -0.0107495562989539 -0.016351603598059729 0.0018789624137906934 0.039614077193244439
leaf_weight=2.7344130575656846 4.5645718574523935 1.402870886027811 2.0116974562406531 1.7316115275025379 1.4993445947766304 2.1048158556222925 5.0834099054336548 5.8366942256689081 1.0067650228738783 1.2374303340911865 1.1963284611701963 6.297250859439373
leaf_count=14 21 9 10 13 10 13 24 26 5 6 7 50
internal_value=-0.00815905 0.00492491 0.018909 -0.015132 0.0275664 -0.023497 -0.00553144 -0.0330733 0.0102629 -0.00207715 -0.0265735 0.0356714
internal_weight=36.7072 20.9479 12.4486 8.49928 10.4369 15.7593 7.18823 8.57111 2.73838 2.73677 5.7609 7.70012
internal_count=208 131 85 46 75 77 37 40 18 16 28 59
is_linear=0
shrinkage=0.0427189


Tree=28
num_leaves=13
num_cat=0
split_feature=307 298 201 301 229 258 207 301 18 1 311 312
split_gain=4.42935 5.01901 3.11686 2.07424 1.95754 1.81452 1.68457 1.55525 0.902575 0.869102 0.328687 0.297879
threshold=7.2500000000000009 5.9400000000000004 1.5000000000000002 9.365000000000002 4.5000000000000009 1.0000000180025095e-35 7.5000000000000009 7.5550000000000006 1.5000000000000002 3.5000000000000004 8.4350000000000005 8.9700000000000006
decision_type=8 10 2 10 2 2 2 8 2 2 10 8
left_child=4 3 6 5 10 8 7 -3 -2 -7 -1 -5
right_child=1 2 -4 11 -6 9 -8 -9 -10 -11 -12 -13
leaf_value=-0.040334193737441036 -0.010415772459696014 -0.0031330185557618675 -0.01328091684280602 0.017559815444993208 0.0042693344019207099 0.00068185551051312796 -0.0042075695447607309 0.039197479068990952 0.016377261969820537 -0.033118387848310164 -0.0054303895764170355 -0.0026488386121607168
leaf_weight=5.7850504666566831 1.6513729095459013 1.3511865288019151 2.50472318381071 1.1981216371059411 1.952712185680866 1.4555471241474132 1.8619136288762081 7.3088976070284852 1.5010796338319776 7.334802433848381 1.6720892637968061 0.89014788717031468
leaf_count=26 8 7 13 9 12 8 11 56 9 35 9 5
internal_value=-0.00798851 0.00155769 0.0185171 -0.0146885 -0.0290065 -0.0210492 0.0273932 0.0335071 0.00413352 -0.0288032 -0.0364153 0.0125076
internal_weight=36.4676 27.0578 13.0267 14.0311 9.40985 11.9428 10.522 8.66008 3.15245 8.79035 7.45714 2.08827
internal_count=208 161 87 74 47 60 74 63 17 43 35 14
is_linear=0
shrinkage=0.0427189


Tree=29
num_leaves=13
num_cat=0
split_feature=311 84 125 31 314 287 1 202 311 297 311 3
split_gain=4.16341 2.74718 2.8455 2.22414 2.06004 1.76264 1.48084 0.789907 0.49413 0.391561 0.305646 0.227511
threshold=8.7600000000000016 1.5000000000000002 1.0000000180025095e-35 1.0000000180025095e-35 9.2250000000000014 3.5000000000000004 1.5000000000000002 1.0000000180025095e-35 7.2900000000000009 8.9400000000000031 8.5200000000000014 3.5000000000000004
decision_type=10 2 2 2 10 2 2 2 10 10 10 2
left_child=1 2 3 6 5 9 -1 10 -8 -2 -4 -5
right_child=4 -3 7 11 -6 -7 8 -9 -10 -11 -12 -13
leaf_value=-0.0084872991156179599 0.030634305290641473 0.016697044719717002 -0.0341110005302631 -0.023755283524346756 -0.015726041918888208 -0.0090980872178388038 0.030251568551278536 0.00056970985570589259 0.00089689019509989394 0.0010048706757515161 -0.0033964028850681674 -0.0010469998062259968
leaf_weight=2.0965906530618721 5.9330724030733091 1.8543726131319989 12.784668125212187 1.9784263074398043 1.2654523104429234 1.4580917730927465 2.1597201526165013 1.3305348604917533 1.5534865558147428 1.1354183256626127 1.3828855305910117 1.316743269562721
leaf_count=11 46 13 61 9 6 8 14 8 10 7 8 7
internal_value=-0.00780541 -0.0161711 -0.0202467 -0.000499831 0.0132436 0.0206021 0.0133894 -0.0298219 0.0239854 0.0276411 -0.0322671 -0.0196037
internal_weight=36.2495 26.4574 24.6031 9.10497 9.79203 8.52658 5.8098 15.4981 3.71321 7.06849 14.1676 3.29517
internal_count=208 141 128 51 67 61 35 77 24 53 69 16
is_linear=0
shrinkage=0.0427189


Tree=30
num_leaves=13
num_cat=0
split_feature=307 298 201 198 299 311 207 295 7 315 316 311
split_gain=4.15994 4.63161 2.94579 1.80493 2.17097 1.64163 1.59489 1.0544 0.999228 0.671086 0.491221 0.214691
threshold=7.2500000000000009 5.9400000000000004 1.5000000000000002 12.500000000000002 4.3550000000000013 8.4350000000000005 7.5000000000000009 1.0000000180025095e-35 87.000000000000014 7.6300000000000017 7.5400000000000009 7.9150000000000009
decision_type=8 10 2 2 8 8 2 2 2 10 8 8
left_child=5 3 6 4 -2 -1 10 8 -6 -7 -3 -10
right_child=1 2 -4 -5 7 9 -8 -9 11 -11 -12 -13
leaf_value=-0.036260101238629917 0.0095832055844012748 0.0021076924581062704 -0.01285141186651661 0.013851308264725493 -0.018098875766424039 0.013382217214343043 -0.0040340508149830931 -0.035074275286400516 -0.0023787050392207504 -0.010161400649780031 0.03598974364781056 0.013125302210973917
leaf_weight=6.5736451894044849 2.2571343779563913 1.2850208505988092 2.4975867420434943 1.3839433714747418 1.8142149746417997 0.90151944756507996 1.8564543947577465 5.7712189331650734 1.2693089842796328 1.8093470484018324 7.2208562120795259 1.4410128518939016
leaf_count=31 13 8 13 10 8 7 11 27 7 9 55 9
internal_value=-0.00755642 0.00171533 0.0180923 -0.0139379 -0.0191475 -0.0280322 0.0267993 -0.0262116 -0.00521462 0.000628729 0.0328104 0.00846685
internal_weight=36.0813 26.7968 12.8599 13.9368 12.5529 9.28451 10.3623 10.2958 4.52454 2.71087 8.50588 2.71032
internal_count=208 161 87 74 64 47 74 51 24 16 63 16
is_linear=0
shrinkage=0.0427189


Tree=31
num_leaves=13
num_cat=0
split_feature=307 298 201 301 258 205 310 288 18 297 120 6
split_gain=3.93395 4.3566 2.81873 1.89924 1.70332 1.60676 1.57514 0.934535 0.850075 0.83754 0.685296 0.653656
threshold=7.2500000000000009 5.9400000000000004 1.5000000000000002 9.365000000000002 1.0000000180025095e-35 11.500000000000002 8.4350000000000005 1.0000000180025095e-35 1.5000000000000002 6.9850000000000003 1.0000000180025095e-35 38.500000000000007
decision_type=8 10 2 10 2 2 8 2 2 8 2 2
left_child=6 3 5 4 8 10 -1 11 -2 -8 -3 -6
right_child=1 2 -4 -5 7 -7 9 -9 -10 -11 -12 -13
leaf_value=-0.035446681502649326 -0.0098647114684119498 0.0024989622451987333 -0.012606159636701746 0.012359070332352897 -0.012824068301520183 -0.0079783890802663307 -0.012988946866160778 -0.034174360974489282 0.016230436550547345 0.01319338759499261 0.035263158660968602 0.010233972128364089
leaf_weight=6.5100302994251225 1.6391370594501524 1.8774008601903878 2.4979469776153556 2.0662238746881476 1.6608064472675308 0.98781739175319749 1.2357222214341175 5.8163280487060547 1.4919329285621641 1.4695796296000478 7.3954252749681473 1.2285092547535894
leaf_count=31 8 12 13 14 8 5 6 27 9 10 57 8
internal_value=-0.00737622 0.00166149 0.0176126 -0.0135183 -0.0196708 0.0261941 -0.0273455 -0.0272396 0.00445519 0.000676005 0.0309279 -0.00279014
internal_weight=35.8769 26.6615 12.7586 13.9029 11.8367 10.2606 9.21533 8.70564 3.13107 2.7053 9.27283 2.88932
internal_count=208 161 87 74 60 74 47 43 17 16 69 16
is_linear=0
shrinkage=0.0427189


Tree=32
num_leaves=13
num_cat=0
split_feature=307 298 201 301 229 177 110 120 7 314 1 314
split_gain=3.72554 4.09297 2.69509 1.81663 1.81048 1.64462 1.55459 1.48752 1.00077 2.29022 0.323948 0.286161
threshold=7.2500000000000009 5.9400000000000004 1.5000000000000002 9.365000000000002 4.5000000000000009 1.0000000180025095e-35 6.5000000000000009 1.0000000180025095e-35 51.500000000000007 7.2900000000000009 13.500000000000002 8.1700000000000017
decision_type=8 10 2 10 2 2 2 2 2 8 2 8
left_child=4 3 6 5 -1 8 7 -3 -2 -10 -11 -5
right_child=1 2 -4 11 -6 -7 -8 -9 9 10 -12 -13
leaf_value=-0.034027146157824276 -0.017571353532991069 -0.0008560597406701198 -0.012365923328293987 0.017135590352380169 0.0046464184155535562 -0.032717147731835497 -0.007417471167998564 0.037320891018074641 -0.017218365248556907 0.027310402922189642 0.0016083043502865952 -0.0026427889617538143
leaf_weight=7.2019665837287885 1.8050801157951371 2.115150257945059 2.4981498047709456 1.1776074916124337 1.9424094781279562 4.7248669192194939 1.0953688323497761 6.9394062757492065 1.8352727070450781 1.8256371617317202 1.6022356152534483 0.88185895979404438
leaf_count=35 8 13 13 9 12 22 6 55 9 12 9 5
internal_value=-0.00722689 0.00159725 0.0171284 -0.0131218 -0.026715 -0.0191584 0.0255892 0.0304616 -0.00285966 0.00683546 0.0217854 0.0121646
internal_weight=35.645 26.5006 12.6481 13.8526 9.14438 11.7931 10.1499 9.05456 7.06823 5.26315 3.42787 2.05947
internal_count=208 161 87 74 47 60 74 68 38 30 21 14
is_linear=0
shrinkage=0.0427189


Tree=33
num_leaves=13
num_cat=0
split_feature=321 196 197 110 54 314 300 189 310 312 300 306
split_gain=3.53959 2.45254 3.50079 3.00833 2.04781 1.78077 1.61176 1.4593 0.844965 0.675192 0.410347 0.390705
threshold=7.2302380952380965 8.5000000000000018 2.5000000000000004 1.5000000000000002 1.0000000180025095e-35 9.2250000000000014 6.1950000000000012 3.5000000000000004 8.7600000000000016 8.1300000000000008 7.2350000000000012 7.2500000000000009
decision_type=2 2 2 2 2 10 8 2 10 10 8 10
left_child=1 2 4 6 10 -2 -3 8 -5 -4 -1 -11
right_child=5 3 9 7 -6 -7 -8 -9 -10 11 -12 -13
leaf_value=-0.0020493639242047607 0.027450459576743219 -0.015485682961544825 0.028487370834565453 -0.014853124345553172 0.012719615671856891 -0.01155553923620203 0.018231827715206577 -0.041775662801735565 0.010586174323484469 -0.0085365789912849339 -0.027112410398516789 0.0096669666479991621
leaf_weight=2.0212868154048937 4.2823893278837195 1.6157617568969715 3.0849454402923575 2.6712471321225153 1.8070888444781301 1.0069112703204153 2.8037668094038963 7.0686578452587128 1.2540752515196798 1.2367986738681793 5.3999426886439323 1.1591205075383186
leaf_count=11 37 8 21 14 11 5 18 33 9 7 26 8
internal_value=-0.00708622 -0.0128894 0.000108333 -0.0232299 -0.0144835 0.0184901 0.0045941 -0.0329637 -0.00563245 0.0210293 -0.0229125 0.000748633
internal_weight=35.412 30.1227 14.7092 15.4135 9.22832 5.2893 4.41953 10.994 3.92532 5.48086 7.42123 2.39592
internal_count=208 166 84 82 48 42 26 56 23 36 37 15
is_linear=0
shrinkage=0.0427189


Tree=34
num_leaves=13
num_cat=0
split_feature=307 298 201 301 229 177 207 301 7 196 258 310
split_gain=3.44265 3.774 2.52919 1.72148 1.69121 1.58223 1.45743 1.44575 0.952411 1.71568 0.327404 0.298548
threshold=7.2500000000000009 5.9400000000000004 1.5000000000000002 9.365000000000002 4.5000000000000009 1.0000000180025095e-35 7.5000000000000009 7.5550000000000006 51.500000000000007 8.5000000000000018 1.5000000000000002 8.4350000000000005
decision_type=8 10 2 10 2 2 2 8 2 2 2 10
left_child=4 3 6 5 11 8 7 -3 -2 10 -10 -1
right_child=1 2 -4 -5 -6 -7 -8 -9 9 -11 -12 -13
leaf_value=-0.036576052118890187 -0.016936029451753407 -0.0035978670072710586 -0.01194613426987276 0.012031586948982638 0.0045746182691789742 -0.031769468118462277 -0.0042389233075688978 0.036587259985566715 0.025774626254663702 -0.01320709803833486 0.00059600375427727693 -0.0046847405317100022
leaf_weight=5.4319007545709592 1.7968308776617066 1.3295226097106905 2.4834255948662749 2.0461884737014762 1.9317607805132864 4.6729742586612701 1.821562997996806 6.8202491030097017 1.7097936719655993 2.1539122611284256 1.3630068153142927 1.6621398031711576
leaf_count=26 8 7 13 14 12 22 11 56 11 11 8 9
internal_value=-0.00686649 0.0016558 0.0166722 -0.0125164 -0.0256881 -0.0184397 0.0249492 0.0308453 -0.00253515 0.00688368 0.0205326 -0.032815
internal_weight=35.2233 26.1975 12.4548 13.7427 9.0258 11.6965 9.97133 8.14977 7.02354 5.22671 3.0728 7.09404
internal_count=208 161 87 74 47 60 74 63 38 30 19 35
is_linear=0
shrinkage=0.0427189


Tree=35
num_leaves=13
num_cat=0
split_feature=307 295 27 281 190 229 252 297 183 172 266 24
split_gain=3.26595 2.61032 3.60952 1.93044 1.68967 1.62694 1.5829 1.23344 1.19152 1.13618 0.922509 0.54193
threshold=7.2500000000000009 1.0000000180025095e-35 1.5000000000000002 1.0000000180025095e-35 7.5000000000000009 4.5000000000000009 1.0000000180025095e-35 6.8100000000000014 12.500000000000002 1.5000000000000002 1.0000000180025095e-35 1.0000000180025095e-35
decision_type=8 2 2 2 2 2 2 10 2 2 2 2
left_child=5 2 4 -4 7 -1 8 10 -3 -8 -2 -9
right_child=1 6 3 -5 -6 -7 9 11 -10 -11 -12 -13
leaf_value=-0.03219052779937473 4.1668360299526862e-05 -0.011076226964547624 0.038170060413376831 -0.007867344667150316 0.017866318526229125 0.0045012623733962122 -0.030174379266509101 0.015574087471427996 0.01593123065183745 0.0041970558208219407 -0.032055154758821904 -0.007107367200224082
leaf_weight=7.0198420658707601 2.2835067957639712 2.8101818859577161 5.2758154198527327 0.91241753846406926 1.2283780500292776 1.9301296547055242 4.3856757953763008 1.0589824542403223 3.0617940202355385 1.3935286849737165 2.541360154747963 1.0822074115276334
leaf_count=35 12 15 42 5 9 12 21 8 22 10 11 6
internal_value=-0.00676551 0.00156581 0.012587 0.0310164 -0.00603331 -0.0251545 -0.0118218 -0.0144676 0.00364197 -0.0233137 -0.0227993 0.00668323
internal_weight=34.9838 26.0338 14.3827 6.18823 8.19443 8.94997 11.6512 6.96606 5.87198 5.7792 4.82487 2.14119
internal_count=208 161 93 47 46 47 68 37 37 31 23 14
is_linear=0
shrinkage=0.0427189


Tree=36
num_leaves=13
num_cat=0
split_feature=311 84 125 307 314 31 287 137 315 27 307 315
split_gain=3.21981 2.15159 2.55389 2.42914 1.85882 1.78336 1.61353 0.67125 1.60073 0.461458 0.460751 0.396145
threshold=8.7600000000000016 1.5000000000000002 1.0000000180025095e-35 8.2500000000000018 9.2250000000000014 1.0000000180025095e-35 3.5000000000000004 1.0000000180025095e-35 7.7150000000000007 1.5000000000000002 5.2500000000000009 6.1050000000000013
decision_type=10 2 2 8 10 2 2 2 8 2 8 8
left_child=1 2 3 -1 6 -5 10 8 -4 -10 -2 -9
right_child=4 -3 7 5 -6 -7 -8 11 9 -11 -12 -13
leaf_value=-0.018766898612140794 -0.00045321076990638594 0.015239588318957727 0.01116483575061792 0.028278520721246193 -0.01518024465004273 -0.0083045266517941339 -0.0090033428749292238 -0.0021796252752874007 -0.026025169419373155 -0.0003476134634894618 0.029369017164684968 -0.037364293010265295
leaf_weight=3.4832768291235015 0.95030325651168635 1.7434792071580876 2.1768323779106122 3.1524900123476991 1.2451207190752018 2.1450284272432327 1.4007471799850462 1.0500649809837339 2.9847268760204315 1.7277648821473119 5.769743375480175 6.9331933856010437
leaf_count=18 5 13 14 22 6 11 8 6 14 10 48 33
internal_value=-0.00659876 -0.0141036 -0.0177886 0.000810355 0.0121902 0.0158692 0.0194336 -0.0270117 -0.010129 -0.0204989 0.026339 -0.0346496
internal_weight=34.7628 25.3969 23.6534 8.7808 9.36591 5.29752 8.12079 14.8726 6.88932 4.71249 6.72005 7.98326
internal_count=208 141 128 51 67 33 61 77 38 24 53 39
is_linear=0
shrinkage=0.0427189


Tree=37
num_leaves=13
num_cat=0
split_feature=311 84 204 236 177 314 299 206 298 311 306 313
split_gain=3.01929 2.0706 1.8393 1.65807 1.4247 3.51528 1.64541 1.11543 1.44148 0.902149 0.872752 0.584295
threshold=8.7600000000000016 1.5000000000000002 10.500000000000002 1.0000000180025095e-35 1.0000000180025095e-35 6.9350000000000014 8.0800000000000018 1.0000000180025095e-35 4.6900000000000004 8.4350000000000005 5.2500000000000009 5.9400000000000004
decision_type=10 2 2 2 2 10 8 2 10 8 8 10
left_child=1 4 3 -2 5 9 7 -6 -9 -1 -8 -4
right_child=2 -3 11 -5 6 -7 10 8 -10 -11 -12 -13
leaf_value=-0.028941958329460352 0.030392481482126272 0.015035743157851762 0.0071343466894708239 -0.0090342887778184708 -0.037327299166426166 0.022637711677170012 -0.012425925893828993 -0.020643314207064663 0.012283992110349246 -0.00066779502248971506 0.014659968786783538 -0.015507006528932332
leaf_weight=2.8268661648035103 4.7819619327783567 1.7340249121189106 1.0532453358173373 1.0190932303667066 7.9058251380920375 3.1032437458634377 1.0000793486833583 1.6293289363384249 2.0683663040399551 3.3878798708319664 1.6101951599121092 2.4329533278942108
leaf_count=14 40 13 8 6 38 20 5 8 13 18 12 13
internal_value=-0.00647055 -0.0137446 0.0117979 0.0227255 -0.0173755 -0.00285801 -0.0246673 -0.0302749 -0.0050223 -0.0188991 0.00316116 -0.00852167
internal_weight=34.5531 25.2658 9.28725 5.80106 23.5318 9.31799 14.2138 11.6035 3.6977 6.21475 2.61027 3.4862
internal_count=208 141 67 46 128 52 76 59 21 32 17 21
is_linear=0
shrinkage=0.0427189


Tree=38
num_leaves=13
num_cat=0
split_feature=230 301 31 298 306 7 270 296 288 299 0 205
split_gain=3.17272 3.14081 2.58341 1.65122 1.19908 1.27953 1.15098 0.706398 0.908476 0.66719 0.606448 0.564125
threshold=1.0000000180025095e-35 8.3450000000000006 26.500000000000004 9.0650000000000031 inf 51.500000000000007 1.0000000180025095e-35 96.430000000000021 1.5000000000000002 6.3450000000000006 2.5000000000000004 1.5000000000000002
decision_type=2 10 2 8 8 2 2 2 2 10 2 2
left_child=4 3 6 9 7 -6 -3 -1 -9 -2 -8 -7
right_child=1 2 -4 -5 5 11 10 8 -10 -11 -12 -13
leaf_value=-0.03135613546718162 -0.030706510916359144 -0.0017352566901070359 -0.011942397805884693 0.010028502266562047 -0.01625045126537222 0.021172710491583927 0.034455801850713348 -0.01622721139286289 0.010604322236356864 -0.0015006092517149553 0.00073061201857126698 -0.0037346809571390544
leaf_weight=7.1802361756563151 2.9721935391426113 2.0368041917681676 2.5558276176452628 1.9209064170718191 1.7859390228986747 1.3687268197536471 6.4501750096678734 1.4721123576164248 1.6810623854398725 2.3071381375193596 1.2385716810822485 1.3717827498912809
leaf_count=36 14 13 14 13 8 9 56 7 10 13 8 7
internal_value=-0.00630916 0.00493328 0.0166298 -0.0140111 -0.0193525 -0.000192418 0.0252165 -0.0257551 -0.00375393 -0.0232383 0.0308028 0.0133418
internal_weight=34.3415 19.4816 12.2814 7.20024 14.8599 4.52645 9.72555 10.3334 3.15317 5.27933 7.68875 2.74051
internal_count=208 131 91 40 77 24 77 53 17 27 64 16
is_linear=0
shrinkage=0.0427189


Tree=39
num_leaves=13
num_cat=0
split_feature=230 297 201 311 0 314 300 312 292 252 1 312
split_gain=2.98922 3.21624 2.48284 1.63096 1.50935 1.24772 2.31704 1.28902 1.23003 0.852402 0.400235 0.376736
threshold=1.0000000180025095e-35 6.5400000000000009 1.5000000000000002 8.5200000000000014 2.5000000000000004 8.4550000000000018 7.4450000000000012 7.7700000000000005 2.5000000000000004 1.5000000000000002 2.5000000000000004 6.9500000000000002
decision_type=2 8 2 10 2 8 8 8 2 2 2 10
left_child=5 3 4 -2 10 7 -7 11 -5 -6 -3 -1
right_child=1 2 -4 8 9 6 -8 -9 -10 -11 -12 -13
leaf_value=-0.0091988057938398836 -0.024084224723380759 0.0026809717257231269 -0.013034171863936296 0.020148496248775877 0.011832120480649626 0.019983471515335076 -0.01683197053252037 -0.036160102313664517 -0.011736290582340105 -0.014811443324113103 0.036264370417333151 0.0084853355797642402
leaf_weight=1.3477840274572348 4.8399894312024143 1.2709528431296329 1.940600425004958 1.7021801695227625 1.4027416110038757 2.0415210425853738 4.9057816714048386 5.230043962597847 1.3448902070522306 1.1787452846765518 5.6507479324936867 1.2356312423944471
leaf_count=7 25 8 10 14 10 13 24 26 7 6 51 7
internal_value=-0.00621034 0.00475292 0.0174183 -0.013349 0.0253216 -0.0188978 -0.00317386 -0.0279883 0.00724944 -0.00177252 0.0328462 -0.00071847
internal_weight=34.0916 19.3308 11.4438 7.88706 9.50319 14.7608 6.9473 7.81346 3.04707 2.58149 6.9217 2.58342
internal_count=208 131 85 46 75 77 37 40 21 16 59 14
is_linear=0
shrinkage=0.0427189


Tree=40
num_leaves=13
num_cat=0
split_feature=230 297 175 309 302 314 291 313 314 258 298 221
split_gain=2.82661 3.0494 1.89686 1.85674 1.8229 1.21148 2.09516 1.04224 0.665278 0.578014 0.457261 0.389
threshold=1.0000000180025095e-35 6.5400000000000009 19.500000000000004 1.0000000180025095e-35 9.2350000000000012 8.4550000000000018 1.0000000180025095e-35 5.9400000000000004 9.2250000000000014 7.5000000000000009 7.8150000000000013 1.5000000000000002
decision_type=2 8 2 2 10 8 2 10 8 2 8 2
left_child=5 4 8 9 -2 7 10 -1 -3 -4 -7 -6
right_child=1 2 3 -5 11 6 -8 -9 -10 -11 -12 -13
leaf_value=-0.033436470451356184 -0.023478090773241325 0.031217126591767053 0.0022772617408528028 0.017845969385936591 -0.0037680890173241309 0.00088050430112849654 0.018243276030086145 0.00067486357270527399 -0.0013262951647605838 -0.025324188498852283 -0.022241514452359161 0.016515497525830092
leaf_weight=5.8921598196029636 5.3138880208134678 5.8614267781376821 1.2802561372518542 1.4919505119323728 1.2980993017554285 1.7990933954715735 2.271334245800972 1.8461125046014784 1.0293151810765264 1.6643267571926115 2.8569697439670563 1.2353452146053312
leaf_count=30 28 49 9 14 8 10 14 10 6 7 13 10
internal_value=-0.00608 0.00462867 0.0170259 -0.00380332 -0.0130156 -0.0184426 -0.00300236 -0.0274353 0.0274516 -0.0183129 -0.0165285 0.00976717
internal_weight=33.8403 19.1746 11.3273 4.43653 7.84733 14.6657 6.9274 7.73827 6.89074 2.94458 4.65606 2.53344
internal_count=208 131 85 30 46 77 37 40 55 16 23 18
is_linear=0
shrinkage=0.0427189


Tree=41
num_leaves=13
num_cat=0
split_feature=230 301 31 196 314 314 173 300 312 314 270 196
split_gain=2.68732 2.82194 2.39063 2.03469 1.32585 1.16637 1.34029 1.11762 1.05212 0.975747 0.75194 0.700787
threshold=1.0000000180025095e-35 8.3450000000000006 26.500000000000004 8.5000000000000018 9.2250000000000014 8.8550000000000022 2.5000000000000004 7.5250000000000012 7.7700000000000005 6.4200000000000008 1.0000000180025095e-35 12.500000000000002
decision_type=2 10 2 2 8 8 2 8 8 10 2 2
left_child=5 3 4 -2 10 8 -7 -5 9 -1 -3 -4
right_child=1 2 11 7 -6 6 -8 -9 -10 -11 -12 -13
leaf_value=-0.01414916912572603 0.011223095386836577 0.0012929301501830226 0.0066735324684470427 -0.032143939948405698 -0.0059188318638733819 -0.012811250250444514 0.016790345956492911 0.0037159348650811991 -0.031537106570034598 0.014318182279426349 0.033977196277257087 -0.019987743906585996
leaf_weight=1.3868099004030185 2.2276114523410824 1.7813282832503281 0.98728768527507726 3.5372265577316284 1.2528095766901977 3.6294019818305978 1.6554803699254987 1.3063444793224332 6.7244406789541253 1.1837646663188932 6.4022831544280052 1.5467221438884733
leaf_count=7 15 12 7 17 7 18 10 8 35 7 58 7
internal_value=-0.00593427 0.00454343 0.01578 -0.0134835 0.0242072 -0.0180128 -0.000747358 -0.0247969 -0.0251762 -0.00037046 0.0291829 -0.01164
internal_weight=33.6215 19.0416 11.9704 7.07118 9.43642 14.5799 5.28488 4.84357 9.29502 2.57057 8.18361 2.53401
internal_count=208 131 91 40 77 77 28 25 49 14 70 14
is_linear=0
shrinkage=0.0427189


Tree=42
num_leaves=13
num_cat=0
split_feature=307 298 283 1 318 198 299 229 317 295 20 302
split_gain=2.73645 3.02648 2.12884 1.49607 1.98497 1.37236 1.83702 1.2979 1.09938 0.948761 0.628516 0.314667
threshold=7.2500000000000009 5.9400000000000004 1.0000000180025095e-35 9.5000000000000018 1.0000000180025095e-35 12.500000000000002 4.3550000000000013 4.5000000000000009 7.5400000000000009 1.0000000180025095e-35 31.500000000000004 9.4550000000000018
decision_type=8 10 2 2 8 2 8 2 10 2 2 8
left_child=7 5 3 8 -5 6 -2 -1 -3 10 -8 -11
right_child=1 2 -4 4 -6 -7 9 -9 -10 11 -12 -13
leaf_value=-0.02946216786660422 0.010206045772973748 -0.013086904304271318 -0.014678322652404758 -0.0077913592894798675 0.037707827520552684 0.013055097805874381 -0.011785087884928136 0.003977508622974228 0.015770413599304152 -0.034881803607617973 0.0094328522696501809 -0.0032451331834071027
leaf_weight=6.58702903985977 2.1318333446979532 2.4503329619765264 1.3355821892619122 1.015354052186012 5.8021463751792908 1.2777519077062596 2.828049935400486 1.8452414795756338 1.1431209146976473 4.0405184403061867 1.533622659742832 1.379211477935314
leaf_count=35 13 14 7 5 50 10 14 12 11 19 10 8
internal_value=-0.00582373 0.00190726 0.0156759 0.0220549 0.0306092 -0.011003 -0.0157558 -0.0230414 -0.000842048 -0.022515 -0.0034977 -0.0309563
internal_weight=33.3698 24.9375 11.7465 10.411 6.8175 13.191 11.9132 8.43227 3.59345 9.7814 4.36167 5.41973
internal_count=208 161 87 80 55 74 64 47 25 51 24 27
is_linear=0
shrinkage=0.0427189


Tree=43
num_leaves=13
num_cat=0
split_feature=321 79 130 301 312 125 277 27 312 174 3 252
split_gain=2.39637 1.79075 1.56203 1.45065 1.91373 1.51152 0.856279 1.11159 0.63449 0.624794 0.495092 0.124701
threshold=7.2302380952380965 1.5000000000000002 1.0000000180025095e-35 9.365000000000002 8.8000000000000025 1.0000000180025095e-35 3.5000000000000004 5.5000000000000009 7.6950000000000012 5.5000000000000009 2.5000000000000004 1.0000000180025095e-35
decision_type=2 2 2 8 8 2 2 2 10 2 2 2
left_child=1 3 -2 6 11 10 7 9 -8 -1 -6 -5
right_child=2 -3 -4 4 5 -7 8 -9 -10 -11 -12 -13
leaf_value=-0.031082034539656144 0.026999651990102236 0.015559630390599448 -0.0084920228599334076 0.021838418119109804 -0.0055236757317048534 -0.02272627488255791 0.012655654497970478 0.004079842159407765 -0.010481643942959536 -0.0028120387560670247 0.015514221484089492 0.0012456486780221007
leaf_weight=10.209573373198518 3.0920381620526305 1.7390156760811795 1.7143962532281873 1.815409347414968 1.4782945439219486 4.178777851164341 1.1565407142043107 1.500086836516856 1.3011974990367887 2.3435663729906073 1.5498233661055563 1.0533756762742994
leaf_count=55 30 13 12 15 8 20 8 10 7 13 10 7
internal_value=-0.00570192 -0.0105983 0.0159729 -0.0137619 -0.000442982 -0.0115054 -0.0205282 -0.0239197 0.00138646 -0.0274141 0.00764288 0.0188667
internal_weight=33.1321 28.3257 4.80643 26.5866 10.0757 7.2069 16.511 14.0532 2.45774 12.5531 3.02812 2.86879
internal_count=208 166 42 153 60 38 93 78 15 68 18 22
is_linear=0
shrinkage=0.0427189


Tree=44
num_leaves=13
num_cat=0
split_feature=311 5 313 104 312 258 299 79 182 294 59 297
split_gain=2.37778 1.71969 1.72422 1.75952 1.64987 2.56689 1.63179 1.41206 0.978619 0.852605 0.7436 0.64496
threshold=8.7600000000000016 1.0000000180025095e-35 8.1250000000000018 1.5000000000000002 7.3050000000000006 5.5000000000000009 6.3450000000000006 1.0000000180025095e-35 4.5000000000000009 1.0000000180025095e-35 1.5000000000000002 8.9400000000000031
decision_type=8 2 10 2 10 2 10 2 2 2 2 10
left_child=4 -2 3 10 6 9 -1 8 -7 -6 11 -3
right_child=1 2 -4 -5 5 7 -8 -9 -10 -11 -12 -13
leaf_value=-0.03587332087556297 -0.013355832871444245 0.033565521405457738 -0.013340320434948929 -0.011322560550890412 0.021874763607771297 0.0036256838129539071 0.0043705362737276607 0.007860580428541002 -0.028760293633297664 -0.0065790133091372617 -0.0029526818967879815 0
leaf_weight=4.7810091078281429 2.7582570016384116 6.3151050731539691 1.129593864083289 0.92379055917263109 3.9123930856585494 1.3369960859417895 1.5899167433381078 1.9545224234461782 5.2141254618763924 1.0257779657840727 0.83254455775022496 1.1750668063759802
leaf_count=25 14 52 6 5 26 9 10 15 27 6 5 8
internal_value=-0.00542467 0.00762816 0.015004 0.0209574 -0.0139396 -0.00344214 -0.0276874 -0.0157883 -0.0231074 0.0157006 0.0266505 0.0298457
internal_weight=32.9491 13.1344 10.3761 9.24651 19.8147 13.4438 6.37093 8.50564 6.55112 4.93817 8.32272 7.49017
internal_count=208 90 76 70 118 83 35 51 36 32 65 60
is_linear=0
shrinkage=0.0427189


Tree=45
num_leaves=13
num_cat=0
split_feature=307 298 191 301 258 315 130 201 312 288 18 229
split_gain=2.43286 2.74843 2.1371 1.24997 1.39205 1.2202 1.16974 1.19156 1.05681 0.723014 0.674415 0.58874
threshold=7.2500000000000009 5.9400000000000004 10.500000000000002 9.365000000000002 1.0000000180025095e-35 7.4150000000000009 1.0000000180025095e-35 1.5000000000000002 7.3650000000000011 1.0000000180025095e-35 1.5000000000000002 4.5000000000000009
decision_type=8 10 2 10 2 8 2 2 10 2 2 2
left_child=5 3 11 4 10 8 7 -4 -1 -6 -2 -3
right_child=1 2 6 -5 9 -7 -8 -9 -10 -11 -12 -13
leaf_value=-0.012641626385492443 -0.0080511001978591807 0.033980220597623803 0.018559887489105864 0.010709609864648705 -0.001677257489714858 -0.029466038981309225 -0.018095259417957997 -0.010863751606712985 0.01699618577985201 -0.029012871534251989 0.015619895803728984 -0.0008613174818042985
leaf_weight=1.6188779026269888 1.5585152506828337 4.0824239328503591 3.3103895708918571 1.8988138735294331 2.7441342845559102 5.6157426014542589 1.7235670015215871 1.5515829622745512 1.0094564929604528 5.3400712609291077 1.4451650083065031 0.83448152989149083
leaf_count=9 8 35 29 14 16 30 9 8 8 27 9 6
internal_value=-0.00537614 0.00196305 0.0151919 -0.0104231 -0.0155991 -0.0217443 -0.00195595 0.00858957 0.00177726 -0.0227831 0.00548402 0.03002
internal_weight=32.7332 24.4891 11.5024 12.9867 11.0879 8.24408 6.58554 4.86197 2.62833 8.08421 3.00368 4.91691
internal_count=208 161 87 74 60 47 46 37 17 43 17 41
is_linear=0
shrinkage=0.0427189


Tree=46
num_leaves=13
num_cat=0
split_feature=311 5 120 206 301 296 199 173 130 27 172 313
split_gain=2.20296 2.20183 2.65165 1.87376 1.98373 1.58578 1.42975 1.12904 1.02772 0.870974 0.853482 0.824927
threshold=8.5200000000000014 1.5000000000000002 3.5000000000000004 1.0000000180025095e-35 7.5550000000000006 75.000000000000014 14.500000000000002 1.5000000000000002 7.5000000000000009 1.0000000180025095e-35 5.5000000000000009 5.3150000000000004
decision_type=8 2 2 2 10 2 2 2 2 2 2 10
left_child=3 9 6 7 -5 -6 8 -1 10 -2 -3 -11
right_child=1 2 -4 4 5 -7 -8 -9 -10 11 -12 -13
leaf_value=0.0034710853563356533 -0.024012911548421768 0.037695168749025919 -0.015387477075729496 -0.018111802159415862 -0.010873508863826356 0.025992662760169486 -0.007780313569674244 -0.028280879174348818 -0.0018748391757240168 0.015987072408271942 -0.001538001743918081 -0.010730879073461935
leaf_weight=1.7003983780741716 1.9942011907696713 5.8199287652969325 1.8523494750261296 2.1137800812721244 1.0996421575546262 3.3752633035182953 0.98674374818801958 8.9788206815719587 1.3701649755239484 1.064784996211529 0.87151361256837834 1.2921074181795118
leaf_count=11 9 52 10 11 6 27 6 48 7 8 6 7
internal_value=-0.00523265 0.00602114 0.0152515 -0.0145761 0.00289599 0.0161837 0.0238601 -0.0235797 0.0288249 -0.0138148 0.033715 0.00356076
internal_weight=32.5197 15.2518 10.9007 17.2679 6.58869 4.47491 9.04835 10.6792 8.06161 4.35109 6.69144 2.35689
internal_count=208 105 81 103 44 33 71 59 65 24 58 15
is_linear=0
shrinkage=0.0427189


Tree=47
num_leaves=13
num_cat=0
split_feature=230 301 212 314 7 314 314 291 67 315 315 173
split_gain=2.27156 2.39229 2.08385 2.52556 1.31896 1.03988 0.997102 1.88501 0.821807 0.771436 0.752353 0.445534
threshold=1.0000000180025095e-35 8.3450000000000006 13.500000000000002 9.2250000000000014 245.50000000000003 6.0000000000000009 8.4550000000000018 1.0000000180025095e-35 1.5000000000000002 7.7150000000000007 7.2900000000000009 2.5000000000000004
decision_type=2 10 2 8 2 10 8 2 2 8 10 2
left_child=6 4 3 5 -2 -3 9 11 -6 10 -1 -8
right_child=1 2 -4 -5 8 -7 7 -9 -10 -11 -12 -13
leaf_value=-0.013378048347322067 0.011871754955982181 -0.004677622522364938 -0.014311167081198058 -0.011584293776894045 -0.025151601570856042 0.0334432237037234 -0.020833676191157752 0.017662776930931861 0.0038304135170820954 -0.032858008320141067 0.011074414984336986 0.0016582449440059404
leaf_weight=2.1041024327278115 1.068387091159823 0.68744514882564178 1.4263554736971844 1.6821585521101958 4.3716513589024544 7.6122912466526031 2.9581348299980172 2.2247679680585861 1.3757307305932043 4.0391607135534286 1.1335321068763731 1.5982797145843504
leaf_count=11 7 4 7 9 23 71 14 14 10 22 7 9
internal_value=-0.00517453 0.00463551 0.0151698 0.0217858 -0.0122206 0.0298676 -0.0164293 -0.00245693 -0.019301 -0.0248094 -0.00357857 -0.0154676
internal_weight=32.282 18.224 11.4083 9.98189 6.81577 8.29974 14.058 6.78118 5.74738 7.2768 3.23763 4.55641
internal_count=208 131 91 84 40 75 77 37 33 40 18 23
is_linear=0
shrinkage=0.0427189


Tree=48
num_leaves=13
num_cat=0
split_feature=307 295 302 297 170 297 315 130 6 315 54 302
split_gain=2.21863 2.10443 2.66603 1.71922 1.15402 1.49098 1.13219 0.9312 0.908225 0.731267 0.342847 0.184005
threshold=7.2500000000000009 1.0000000180025095e-35 7.5550000000000006 5.9150000000000009 1.0000000180025095e-35 5.5750000000000002 7.4150000000000009 3.5000000000000004 44.500000000000007 6.4200000000000008 1.0000000180025095e-35 5.6500000000000012
decision_type=8 2 10 8 2 8 8 2 2 10 2 8
left_child=6 2 7 -4 5 -3 9 11 -7 -1 -6 -2
right_child=1 4 3 -5 10 8 -8 -9 -10 -11 -12 -13
leaf_value=-0.011753794082554083 8.4542077534045202e-05 0.01068239135849368 -0.0054145678672231764 0.033713003615914068 -0.0042273420866743372 0.0020253056335609813 -0.028401477480401928 0.0098035134484967534 -0.028389688820700545 0.012963343865482771 0.015163693780917097 -0.018027701014428729
leaf_weight=1.0793523788452124 1.1820220202207581 1.1624063551425905 1.678287975490093 5.5017851479351521 0.96835985779762213 1.7539164423942573 5.4753881916403779 1.6944269835948942 5.672024168074131 1.4971125200390814 1.1807068139314649 3.1915469765663147
leaf_count=6 7 9 10 50 7 10 30 10 31 11 11 16
internal_value=-0.00515058 0.00193127 0.0121213 0.0256914 -0.010537 -0.0165616 -0.0209077 -0.00719745 -0.0227255 0.00183591 0.00908619 -0.015127
internal_weight=32.0373 23.9855 13.2481 7.18007 10.7374 8.58835 8.05185 6.068 7.42594 2.57646 2.14907 4.37357
internal_count=208 161 93 60 68 50 47 33 41 17 18 23
is_linear=0
shrinkage=0.0427189


Tree=49
num_leaves=13
num_cat=0
split_feature=230 297 252 266 196 276 300 312 291 314 213 301
split_gain=2.08874 2.58608 1.90919 1.56115 1.55574 1.09666 1.02262 0.84762 0.768961 1.81596 0.564772 0.485313
threshold=1.0000000180025095e-35 6.5400000000000009 1.5000000000000002 6.5000000000000009 8.5000000000000018 1.0000000180025095e-35 4.3550000000000013 6.9500000000000002 1.0000000180025095e-35 8.4550000000000018 3.5000000000000004 9.1950000000000021
decision_type=2 8 2 2 2 2 8 10 2 8 2 10
left_child=6 4 3 7 10 -4 -1 -3 -8 -10 -2 -6
right_child=1 2 5 -5 11 -7 8 -9 9 -11 -12 -13
leaf_value=0.0074367597253975973 -0.006113995673038137 -0.0026129084720321197 0.012007790539842904 -0.0057153203657854933 -0.027419778108710244 -0.018787908166335486 -0.026489261486402883 0.035715779428295916 -0.018016672765793794 0.016122324726141123 0.017166714935482497 -0.00017143345228121977
leaf_weight=1.4034357368946082 1.2052134200930624 0.73840656876563837 0.90359099954366717 1.5122458040714262 3.3189070224761963 1.9771521613001821 7.0891938954591751 5.4496101252734661 3.3351666331291199 2.0665982961654663 1.3250517025589941 1.5165924727916715
leaf_count=9 7 4 9 10 17 10 37 52 18 13 11 11
internal_value=-0.00500235 0.00448169 0.0161993 0.0248988 -0.0121587 -0.00790194 -0.0158333 0.0317938 -0.0194123 -0.00383184 0.00881438 -0.0222926
internal_weight=31.8412 17.9468 10.581 7.70026 7.36576 2.88074 13.8944 6.18802 12.491 5.40176 2.53027 4.8355
internal_count=208 131 85 66 46 19 77 56 68 31 18 28
is_linear=0
shrinkage=0.0427189


Tree=50
num_leaves=13
num_cat=0
split_feature=295 27 301 294 300 252 301 3 310 175 300 205
split_gain=1.88286 2.90187 2.26613 1.39034 1.88073 1.32694 1.60368 1.29062 0.921487 0.901161 0.624703 0.162091
threshold=1.0000000180025095e-35 1.0000000180025095e-35 7.5550000000000006 1.0000000180025095e-35 5.5250000000000012 1.0000000180025095e-35 9.2350000000000012 1.0000000180025095e-35 9.0500000000000025 14.500000000000002 5.3100000000000014 1.5000000000000002
decision_type=2 2 10 2 8 2 10 2 8 2 10 2
left_child=1 2 11 4 -3 6 9 -6 -7 10 -2 -1
right_child=5 3 -4 -5 7 8 -8 -9 -10 -11 -12 -13
leaf_value=-0.0060982072149092653 -0.0083570447543073311 -0.0088869049682703174 0.014415115272176029 -0.0073416902680503897 -0.00038437568810847738 -0.030620002270294312 0.017756112460732176 0.038133537046552674 0.0028422166688488858 -0.022031479749945484 0.0152095073636636 -0.028443283427424266
leaf_weight=3.0616404861211839 1.312352448701857 1.3230165615677805 1.861821863800287 1.8988428711891163 1.9023487567901618 5.3853996321558952 2.1349811479449272 4.8645966611802578 1.2205880656838415 2.6643505021929741 0.9986915811896323 2.9765939936041832
leaf_count=17 8 8 15 12 13 29 18 41 9 14 9 15
internal_value=-0.00488504 0.0041308 -0.0126344 0.017245 0.023456 -0.0152353 -0.000832107 0.0305912 -0.0255027 -0.012577 0.00470326 -0.0230455
internal_weight=31.6052 17.8889 7.90006 9.9888 8.08996 13.7164 7.11038 6.76695 6.60599 4.97539 2.31104 6.03823
internal_count=208 121 47 74 62 87 49 54 38 31 17 32
is_linear=0
shrinkage=0.0427189


Tree=51
num_leaves=13
num_cat=0
split_feature=307 295 301 270 125 206 311 321 5 24 173 66
split_gain=2.09085 1.85029 2.38771 1.53384 1.51575 1.36489 1.66839 0.988725 0.769358 0.554381 0.422583 0.410038
threshold=7.2500000000000009 1.0000000180025095e-35 7.5550000000000006 5.5000000000000009 1.0000000180025095e-35 1.0000000180025095e-35 9.0500000000000025 5.0445341614906836 1.0000000180025095e-35 3.5000000000000004 1.5000000000000002 2.5000000000000004
decision_type=8 2 10 2 2 2 10 2 2 2 2 2
left_child=3 2 4 10 8 6 11 -4 -2 -9 -1 -3
right_child=1 5 7 -5 -6 -7 -8 9 -10 -11 -12 -13
leaf_value=-0.0012419241780052413 -0.0064751396456110945 -0.027681671504667431 -0.005527122231764269 0.0099148526102481125 -0.01980794657936279 0.010265367297118829 0.010435245853577602 0.032562729971954682 0.020499926983177656 -0.00039620379064116005 -0.029771224662464346 -0.0006339041402021353
leaf_weight=1.3822296857833887 1.3710597455501576 5.3425056636333448 0.74725684523582447 0.97197265923023213 3.1879380941390991 2.4352048560976973 1.4526707679033277 5.2538714036345482 1.4385680407285688 0.96175666898488987 5.5201037526130676 1.3361415416002271
leaf_count=9 7 28 4 7 16 19 13 49 10 7 31 8
internal_value=-0.00479522 0.00212248 0.0117479 -0.0202141 -0.00664475 -0.00966734 -0.0168297 0.0247535 0.0108445 0.0290278 -0.0262237 -0.0241963
internal_weight=31.4013 23.527 12.9605 7.87431 5.99757 10.5665 8.13132 6.96288 2.80963 6.21563 6.90233 6.67865
internal_count=208 161 93 47 33 68 49 60 17 56 40 36
is_linear=0
shrinkage=0.0427189


Tree=52
num_leaves=13
num_cat=0
split_feature=307 298 196 270 174 295 125 297 204 229 1 174
split_gain=1.98606 2.23285 1.88936 1.48267 1.1441 1.06761 1.37995 1.02313 0.934573 0.631044 0.495036 0.474481
threshold=7.2500000000000009 5.9400000000000004 12.500000000000002 5.5000000000000009 2.5000000000000004 1.0000000180025095e-35 1.0000000180025095e-35 5.6750000000000016 11.500000000000002 3.5000000000000004 6.5000000000000009 4.5000000000000009
decision_type=8 10 2 2 2 2 2 8 2 2 2 2
left_child=3 5 8 -1 -4 6 10 -7 -3 -6 -2 -9
right_child=1 2 4 -5 9 7 -8 11 -10 -11 -12 -13
leaf_value=-0.025668750329564474 -0.0013438900314407809 0.031787180801396198 0.012813113033138654 0.0098179352517441688 -0.022483780649010653 0.0059628038743559635 -0.012588425542580946 -0.028845199363816767 -0.0022319120344773775 0.0038048027613343475 0.023159022818112763 0.00014420045134653058
leaf_weight=6.8439071550965336 1.7226583212614079 4.6366813816130144 1.6280523464083669 0.97039228677749623 1.9532401561737063 1.2822232842445371 2.8469175100326538 3.8184073716402054 1.3388444557785986 1.3194359764456747 1.6565530076622961 1.1706965118646619
leaf_count=40 10 41 14 7 9 9 16 19 11 12 12 8
internal_value=-0.00464934 0.00211138 0.0143039 -0.0197169 -0.00451872 -0.00923315 0.00308869 -0.0184377 0.0260064 -0.0151902 0.0160059 -0.0245955
internal_weight=31.188 23.3737 10.8763 7.8143 4.90073 12.4975 6.22613 6.27133 5.97553 3.27268 3.37921 4.9891
internal_count=208 161 87 47 35 74 38 36 52 21 22 27
is_linear=0
shrinkage=0.0427189


Tree=53
num_leaves=13
num_cat=0
split_feature=307 298 191 270 198 299 295 174 229 7 229 229
split_gain=1.87384 2.12038 1.865 1.42931 1.05999 1.5807 0.751891 0.747599 1.37387 0.721924 0.525522 0.468311
